{"features.0.weight": [[-0.0034797636326402426, 0.037579044699668884, 0.050078924745321274, -0.2598018944263458, 0.08183813095092773, -0.026163838803768158, 0.005038417410105467, 0.08435530960559845, 0.08232036978006363, -0.1660623699426651, -0.02250894531607628, 0.02628767490386963, -0.0092508839443326, -0.11391858756542206, 0.1358942836523056, -0.021692639216780663, 0.09744953364133835, 0.015701742842793465, 0.028106603771448135, -0.011213534511625767, -0.05658487603068352, -0.025855401530861855, -0.0549786314368248, -0.03004010021686554, 0.04108355566859245], [0.009129931218922138, -0.052208539098501205, -0.08969167619943619, 0.2204868048429489, 0.0648026168346405, 0.23910142481327057, 0.1857028603553772, 0.1321287602186203, 0.1377277821302414, 0.14828594028949738, -0.015144143253564835, -0.0738682821393013, -0.004331995267421007, -0.21761704981327057, 0.2020888328552246, -0.06749390065670013, 0.40754401683807373, 0.2425636500120163, 0.16945302486419678, 0.11286784708499908, 0.10106264799833298, -0.13110655546188354, -0.18013671040534973, -0.03021330200135708, 0.1656140685081482], [-0.4533357620239258, -0.0554385669529438, 0.08065082877874374, -0.0014894994674250484, 0.0042166984640061855, -0.09408759325742722, -0.05896288529038429, -0.04196298122406006, -0.029864398762583733, -0.04591352865099907, -0.012184444814920425, -0.08177276700735092, -0.035308837890625, -0.024091053754091263, 0.006882504094392061, 0.14714908599853516, 0.06140542030334473, 0.1290043145418167, 0.18801850080490112, 0.054245106875896454, 0.044229697436094284, -0.09322811663150787, -0.07744932919740677, -0.15804190933704376, -0.17641721665859222], [-0.013918992131948471, 0.19829213619232178, 0.1380625069141388, 0.06269913911819458, 0.09525402635335922, 0.15863722562789917, 0.19664926826953888, 0.08251187950372696, 0.0544607937335968, -0.05988672375679016, 0.08584138751029968, 0.06987772136926651, -0.022222694009542465, -0.030199576169252396, -0.013621530495584011, 0.17483438551425934, 0.0032280024606734514, 0.029594989493489265, 0.05514959618449211, -0.0050212121568620205, 0.120463527739048, 0.00722317723557353, -0.02519989386200905, -0.0639728456735611, -0.0696987584233284], [-0.005170366261154413, -0.03447360545396805, -0.07173874229192734, 0.3371872007846832, 0.1099591925740242, -0.043327756226062775, -0.05040808022022247, -0.09371625632047653, 0.18387824296951294, 0.22180494666099548, 0.19649337232112885, 0.09677884727716446, 0.031599011272192, -0.1236107274889946, 0.11235857009887695, -0.018917955458164215, 0.16852149367332458, 0.02414363995194435, 0.052666861563920975, 0.038590870797634125, 0.026053765788674355, 0.03532235696911812, -0.038567353039979935, -0.044844966381788254, -0.09541154652833939], [0.02772560715675354, 0.07526446878910065, 0.03336913138628006, 0.08758582919836044, 0.23684625327587128, -0.003631291911005974, 0.049411654472351074, -0.03188140317797661, -0.07517846673727036, -0.0760086327791214, -0.01982778124511242, 0.15714961290359497, 0.20446720719337463, 0.08250396698713303, -0.16228534281253815, 0.05462560057640076, -0.06337471306324005, 0.13291588425636292, 0.037815384566783905, -0.11821182817220688, -0.1321893036365509, -0.012269299477338791, -0.011125672608613968, -0.051376525312662125, -0.12592042982578278], [0.09048961848020554, 0.12686651945114136, 0.23107700049877167, -0.1601680964231491, -0.14923690259456635, 0.10836532711982727, 0.1422235518693924, 0.03706623613834381, 0.011667907238006592, -0.13301965594291687, -0.039415087550878525, -0.04941777139902115, -0.11248468607664108, -0.13116410374641418, -0.3087112307548523, 0.1168501153588295, 0.0886545330286026, 0.09688611328601837, 0.16183623671531677, 0.03542238846421242, -0.058463968336582184, -0.01950278878211975, 0.09707938879728317, 0.19323760271072388, 0.20313400030136108], [-0.027729429304599762, 0.0788731500506401, 0.09842339903116226, -0.0717669427394867, 0.11034029722213745, -0.0720498338341713, -0.024081198498606682, -0.02186517044901848, 0.05147735774517059, 0.12804022431373596, 0.055591922253370285, 0.09369605034589767, -0.02745317853987217, -0.00272948550991714, 0.03362677991390228, -0.1837756186723709, -0.1850241869688034, -0.01667412556707859, -0.14948399364948273, -0.1185317113995552, -0.02446543052792549, 0.008748154155910015, 0.13121867179870605, 0.15893447399139404, 0.03491874411702156], [0.01613088883459568, 0.24159376323223114, 0.2676524817943573, 0.05010460689663887, 0.1266825944185257, -0.08834470063447952, -0.1056046336889267, -0.10927307605743408, -0.10256653279066086, -0.015818651765584946, 0.11451137810945511, 0.030715107917785645, 0.042929794639348984, 0.17716893553733826, 0.009411449544131756, -0.23548415303230286, -0.021405542269349098, 0.006327934563159943, 0.0019466208759695292, 0.10409679263830185, 0.23002128303050995, -0.04122862219810486, -0.061672940850257874, -0.09235501289367676, -0.12447408586740494], [0.17062334716320038, -0.03747033700346947, 0.05857374146580696, -0.09036300331354141, -0.1716175526380539, -0.03446904569864273, 0.011337650008499622, -0.10211765021085739, -0.100833959877491, 0.005259307567030191, -0.10184833407402039, 0.041425153613090515, 0.07447893917560577, -0.004903340246528387, 0.08740938454866409, 0.03613177314400673, 0.20703382790088654, -0.0542856827378273, -0.10953251272439957, -0.05281207337975502, 0.020094694569706917, 0.04709033668041229, 0.006378848571330309, 0.05403021350502968, 0.10813028365373611], [-0.529761791229248, 0.1536807268857956, 0.15834662318229675, 0.0359044075012207, -0.007976655848324299, 0.032686349004507065, 0.09177402406930923, -0.00468286219984293, -0.024268563836812973, 0.05094302445650101, 0.08437685668468475, 0.05618731305003166, 0.1121128499507904, 0.04769827425479889, 0.05439145863056183, 0.13248297572135925, 0.035553961992263794, -0.04066170006990433, -0.0536738857626915, -0.03753182664513588, 0.005878211930394173, 0.04018144682049751, 0.07202775031328201, 0.15742707252502441, 0.20273397862911224], [0.048629965633153915, -0.07290388643741608, -0.07469404488801956, 0.09528783708810806, -0.026203196495771408, -0.15780755877494812, 0.0232402291148901, 0.07642096281051636, -0.006687096785753965, -0.10270897299051285, -0.05121918395161629, 0.12931714951992035, 0.09888651221990585, -0.08894485235214233, -0.2322458028793335, 0.015429744496941566, 0.11362946778535843, 0.08982998132705688, 0.03979240730404854, 0.07538918405771255, -0.03817477822303772, 0.03189466893672943, -0.15747228264808655, -0.15111535787582397, 0.03930329903960228], [-0.010223914869129658, -0.010228419676423073, -0.04226257652044296, -0.2147849202156067, 0.2736116051673889, -0.011770915240049362, -0.012550014071166515, -0.02198738418519497, 0.06370469182729721, 0.21020819246768951, 0.17194201052188873, 0.17730329930782318, 0.024816755205392838, -0.3074268400669098, -0.08707115799188614, 0.013864517211914062, -0.0010013824794441462, 0.06696221232414246, 0.015579012222588062, -0.012765124440193176, -0.08597011864185333, -0.05048838257789612, -0.0443439856171608, -0.12014700472354889, -0.10091940313577652], [0.014227653853595257, 0.06874238699674606, 0.013860756531357765, -0.024230457842350006, -0.15997833013534546, -0.04100572690367699, -0.12925687432289124, -0.04835008084774017, -0.06521519273519516, -0.020298801362514496, 0.05480266362428665, 0.032741647213697433, 0.0021120551973581314, 0.022608302533626556, 0.051398713141679764, 0.31267425417900085, -0.1039714366197586, 0.08546475321054459, 0.16184531152248383, 0.1366225779056549, 0.042646583169698715, -0.10213004797697067, 0.02438959665596485, 0.07167589664459229, 0.033202093094587326], [-0.05061187222599983, 0.13564319908618927, 0.08397886902093887, -0.09402217715978622, 0.05668872594833374, -0.1551656424999237, -0.1367942839860916, 0.000490018050186336, 0.003424610011279583, 0.17903490364551544, 0.04125802218914032, -0.03344753012061119, 0.06284130364656448, -0.012392178177833557, -0.28593388199806213, 0.051647379994392395, -0.03053402155637741, 0.005535569973289967, -0.035920947790145874, -0.060874029994010925, 0.10714303702116013, 0.026288269087672234, 0.013933381997048855, -0.060745369642972946, -0.1087137758731842], [0.011246994137763977, -0.06499502062797546, -0.02734503336250782, -0.20316442847251892, 0.24053946137428284, 0.10500546544790268, 0.1956179141998291, -0.04062725603580475, -0.10096119344234467, -0.1912883222103119, -0.03831123933196068, 0.022881975397467613, 0.11369536072015762, -0.18163512647151947, -0.10622518509626389, -0.09947710484266281, 0.05192567780613899, 0.09969419986009598, 0.11846005916595459, 0.18824000656604767, 0.10966873914003372, 0.08414041996002197, 0.036910973489284515, 0.04970518872141838, 0.017152762040495872], [0.20670031011104584, 0.2176879346370697, 0.15840931236743927, -0.10139456391334534, 0.10882416367530823, 0.028158599510788918, 0.04999399185180664, 0.08670638501644135, 0.14558705687522888, 0.06420161575078964, 0.04874246194958687, 0.0774071216583252, 0.13072971999645233, 0.18388813734054565, 0.09081513434648514, -0.15845593810081482, -0.13790786266326904, 0.19777002930641174, 0.1239527016878128, -0.048116784542798996, -0.10898511111736298, -0.013600579462945461, 0.05871500074863434, 0.05820789188146591, 0.0933566465973854], [0.3870202302932739, -0.05828291177749634, 0.041822899132966995, -0.06828413903713226, -0.08966082334518433, -0.09679955989122391, -0.1262989044189453, -0.029179491102695465, -0.024432472884655, -0.048204030841588974, 0.20699164271354675, 0.03667279705405235, 0.01881246827542782, -0.19596123695373535, -0.04685359075665474, -0.1140131950378418, 0.10579259693622589, 0.1819041669368744, 0.18556565046310425, 0.0383622832596302, -0.08610434830188751, -0.1153232753276825, -0.07021096348762512, -0.22871854901313782, -0.27206090092658997], [0.01070295087993145, 0.11240503937005997, 0.10167752951383591, -0.1729605346918106, -0.002868218580260873, -0.0014117131941020489, 0.022983942180871964, -0.091969333589077, -0.08659207820892334, -0.07221803069114685, -0.03473548963665962, 0.03534899279475212, 0.044876307249069214, 0.059706494212150574, 0.2687634229660034, 0.26106899976730347, -0.12499931454658508, -0.001393556478433311, -0.054514870047569275, -0.18553104996681213, -0.08461211621761322, 0.022635696455836296, 0.08015337586402893, 0.12236461788415909, 0.08669804781675339], [0.3222794830799103, -0.08145309239625931, -0.13207653164863586, -0.13805226981639862, -0.15679091215133667, 0.12051896005868912, 0.06634228676557541, -0.02581971511244774, -0.027514325454831123, 0.03923825919628143, -0.07462429255247116, 0.06326992809772491, 0.09758716821670532, 0.2918564975261688, -0.202776700258255, 0.049090396612882614, -0.1785193383693695, 0.07312316447496414, 0.016184501349925995, -0.02217998169362545, 0.013532028533518314, 0.07241994142532349, 0.08460137248039246, 0.08198754489421844, 0.01048304419964552], [-0.06316781044006348, -0.060866016894578934, -0.08326452970504761, 0.060860078781843185, -0.0615178719162941, 0.18032841384410858, 0.21203497052192688, 0.0018881983123719692, -0.009887226857244968, -0.020707838237285614, 0.07711520045995712, -0.00861940998584032, -0.060957279056310654, -0.09226115792989731, -0.13017749786376953, 0.14661051332950592, -0.25521621108055115, 0.1938963532447815, 0.15595348179340363, 0.09301168471574783, -0.056830182671546936, 0.07909075915813446, 0.0020256342831999063, -0.03422177955508232, -0.027726508677005768], [-0.007963720709085464, -0.026847131550312042, -0.009569872170686722, 0.20173238217830658, -0.19150777161121368, -0.21183083951473236, -0.0991138219833374, 0.0125628262758255, 0.10323581099510193, 0.01934555359184742, -0.010538584552705288, -0.17335131764411926, -0.16980865597724915, -0.09740760177373886, 0.004101569298654795, -0.0008621633751317859, 0.1028541773557663, 0.15549570322036743, 0.11756778508424759, 0.18595747649669647, 0.07145312428474426, -0.08410169184207916, 0.0602947436273098, 0.08404616266489029, 0.0721844732761383], [-0.15821096301078796, 0.2536110579967499, 0.1854505091905594, 0.14107981324195862, -0.06008148565888405, 0.08330944180488586, 0.10419508814811707, 0.1859837770462036, 0.08062722533941269, 0.06091087684035301, -0.014327111653983593, 0.1101299524307251, 0.12866923213005066, 0.2968790531158447, -0.10586999356746674, -0.07703639566898346, -0.24703779816627502, 0.07612510025501251, 0.03973931446671486, 0.06649883836507797, 0.08197900652885437, 0.08121413737535477, -0.033014506101608276, -0.06904330104589462, -0.043662793934345245], [-0.013647801242768764, -0.1365724354982376, -0.09281830489635468, 0.17242249846458435, -0.04001520574092865, 0.0566258542239666, 0.04689318314194679, 0.002366728149354458, 0.14290668070316315, 0.24117401242256165, 0.1532433032989502, 0.013220797292888165, -0.07644766569137573, -0.13162030279636383, -0.1601678431034088, 0.19840602576732635, 0.0017543729627504945, 0.18254633247852325, 0.06897882372140884, -0.02404666133224964, 0.05758628249168396, -0.13685379922389984, -0.015923384577035904, 0.10844370722770691, 0.1349690705537796], [0.5933293104171753, 0.10613380372524261, 0.0451912060379982, -0.00402709748595953, -0.002853699028491974, -0.1022130474448204, -0.08199591934680939, -0.09779118001461029, -0.08256388455629349, -0.061604324728250504, -0.05375262722373009, -0.04899967461824417, -0.033255044370889664, -0.039779432117938995, 0.005290924105793238, -0.0044183675199747086, 0.013232383877038956, 0.021009210497140884, 0.008196447044610977, -0.0019830740056931973, -0.006134615745395422, -0.01124321948736906, -0.02123398520052433, -0.02180970460176468, -0.035958170890808105], [-0.20189298689365387, 0.12704265117645264, -0.13409467041492462, -0.18093891441822052, -0.15892887115478516, 0.01289141271263361, -0.030173327773809433, -0.0023422292433679104, 0.09287501871585846, 0.03935946896672249, -0.04291030019521713, -0.1146668940782547, -0.08450084179639816, 0.09534478187561035, -0.2320261150598526, -0.053775835782289505, -0.008063985966145992, 0.002542843110859394, -0.05036083981394768, -0.019420960918068886, 0.052395276725292206, -0.08695431053638458, -0.016463905572891235, -0.04213263839483261, -0.0494098961353302], [-0.0012241487856954336, 0.11775676161050797, 0.10847609490156174, -0.24247632920742035, 0.0567183680832386, -0.12208257615566254, -0.052948176860809326, -0.15657968819141388, -0.23174136877059937, 0.09931132942438126, 0.1923041045665741, 0.330780953168869, 0.33435264229774475, -0.09848050773143768, -0.010273141786456108, 0.02279871143400669, -0.12740859389305115, 0.05264699459075928, 0.14060810208320618, 0.1512833833694458, 0.14933164417743683, -0.06482100486755371, -0.05469004809856415, -0.04424523562192917, -0.05683862790465355], [-0.11106406152248383, 0.04942513257265091, 0.051875725388526917, -0.1937452107667923, 0.17404398322105408, -0.05815431475639343, -0.1293851137161255, -0.12294145673513412, 0.00701963622123003, 0.0224064439535141, 0.09909273684024811, 0.2077215015888214, 0.096527598798275, -0.002928522415459156, -0.005504242144525051, -0.20621100068092346, 0.20657919347286224, -0.24532543122768402, -0.011485819704830647, 0.09470950067043304, 0.06450842320919037, -0.0331648625433445, 0.03606598451733589, -0.007575972005724907, -0.05829601362347603], [0.2838720977306366, -0.05436122417449951, -0.022561142221093178, 0.18100811541080475, 0.14632922410964966, -0.03564605861902237, -0.05931106582283974, -0.10488853603601456, -0.07872896641492844, -0.0573357529938221, -0.06156586855649948, 0.03146248310804367, 0.12492939084768295, 0.18722490966320038, 0.2204103320837021, -0.03454110398888588, -0.044955261051654816, 0.10586503148078918, 0.0342407152056694, -0.0737924724817276, -0.16218671202659607, 0.09244804084300995, 0.09167946875095367, 0.038580555468797684, 0.0815778374671936], [0.012837179005146027, 0.06124032661318779, 0.07666154205799103, 0.26098769903182983, 0.2712906301021576, 0.075802281498909, 0.05304142087697983, 0.012454703450202942, -0.028209220618009567, -0.08284935355186462, -0.08256512135267258, -0.14982014894485474, -0.10773108899593353, 0.05791144073009491, -0.22286713123321533, -0.056762535125017166, 0.22629490494728088, -0.07150094211101532, -0.09777048230171204, -0.23049107193946838, -0.12400289624929428, -0.09227578341960907, -0.04985397681593895, -0.02109127677977085, 0.04610836133360863], [0.014712374657392502, -0.15785114467144012, -0.009231995791196823, -0.2823185920715332, 0.04730716720223427, -0.2324160635471344, -0.18422488868236542, 0.04336018115282059, 0.08488867431879044, 0.08096858859062195, 0.06285253912210464, -0.14231367409229279, -0.16223618388175964, -0.09855465590953827, -0.05819319561123848, -0.09585700929164886, -0.03725443407893181, 0.007474813144654036, 0.08608640730381012, -0.05460726469755173, -0.05868687108159065, 0.04580695182085037, 0.08951486647129059, 0.047350216656923294, 0.12345065176486969], [-0.0027989586815238, 0.01454516127705574, -0.08451816439628601, 0.12342589348554611, -0.11972113698720932, -0.01900036633014679, -0.06940173357725143, 0.06941818445920944, 0.11367052048444748, 0.0005388015415519476, -0.037228770554065704, 0.030230114236474037, 0.14815759658813477, 0.1286117285490036, -0.1314910501241684, -0.004386006388813257, 0.09584836661815643, 0.01633565127849579, 0.009649654850363731, 0.09623406827449799, 0.008510898798704147, 0.1344788521528244, 0.12381701916456223, -0.010578764602541924, -0.09872108697891235], [0.2260923534631729, 0.1701250523328781, -0.020835639908909798, -0.1669209897518158, 0.018424322828650475, -0.007099857088178396, -0.0544985868036747, 0.0085281478241086, 0.04973995313048363, 0.056086644530296326, 0.10459840297698975, 0.1399451643228531, -0.07996435463428497, -0.42939293384552, 0.09759318828582764, -0.1985148936510086, 0.32340672612190247, -0.16465669870376587, -0.03638772293925285, -0.07441432774066925, 0.07667937129735947, 0.17545965313911438, 0.07811728119850159, 0.10892501473426819, 0.12597209215164185], [-0.2959930896759033, -0.10768236964941025, -0.0673200786113739, -0.09318680316209793, -0.12123434245586395, -0.2099529504776001, -0.1301960051059723, 0.028233602643013, 0.017597239464521408, 0.009724258445203304, 0.08687616139650345, 0.12916310131549835, 0.018179358914494514, 0.08247557282447815, -0.1928677260875702, -0.05058176815509796, -0.19363251328468323, -0.0021817961242049932, 0.004169264808297157, 0.07838647067546844, -0.006475260015577078, -0.007883275859057903, -0.00012020296708215028, -0.09911379963159561, -0.14078320562839508], [0.07360964268445969, 0.014124350622296333, -0.09565776586532593, 0.10307896137237549, 0.05206475034356117, 0.06834744662046432, -0.14986664056777954, 0.04310476407408714, 0.16740266978740692, -0.02193318121135235, -0.019032757729291916, 0.022242214530706406, -0.007886205799877644, 0.0419812873005867, 0.015280027873814106, 0.07184936851263046, -0.036487121134996414, -0.2514789402484894, -0.2479415088891983, 0.17592129111289978, 0.2639203369617462, 0.14307710528373718, -0.025876736268401146, -0.1799250692129135, -0.15702952444553375], [-0.013920232653617859, 0.04016446694731712, 0.061565931886434555, 0.03736216202378273, 0.16703511774539948, 0.028881240636110306, 0.028490308672189713, -0.0667407438158989, -0.13608023524284363, -0.35319793224334717, -0.2598148286342621, -0.21392495930194855, -0.13539841771125793, 0.14985793828964233, 0.21281060576438904, 0.31431153416633606, 0.224856436252594, -0.012974346987903118, -0.0023940985556691885, -0.019655311480164528, 0.018590301275253296, -0.08532652258872986, -0.11481451988220215, 0.026749640703201294, 0.11420149356126785], [-0.3418782353401184, 0.02549069933593273, 0.09906945377588272, 0.08375488221645355, 0.22102175652980804, 0.10680822283029556, 0.07965493947267532, 0.050898678600788116, 0.036101773381233215, -0.07415733486413956, 0.03839849308133125, 0.08653873205184937, 0.10081464052200317, 0.03826218843460083, 0.037495262920856476, -0.0425940677523613, -0.13954967260360718, 0.29017606377601624, 0.257217139005661, 0.08068233728408813, 0.004336167126893997, 0.0873849019408226, 0.07286375761032104, 0.09796658158302307, 0.14423243701457977], [-0.11659752577543259, 0.2464839220046997, 0.06944619119167328, -0.21954278647899628, 0.004022157751023769, -0.06331127882003784, 0.005984339397400618, 0.1172567754983902, 0.07784569263458252, 0.1266728937625885, 0.13912740349769592, 0.09142054617404938, 0.18032433092594147, -0.07351900637149811, 0.1612638682126999, 0.02079220861196518, -0.28503403067588806, 0.08792977780103683, 0.1118069440126419, 0.03747051954269409, -0.01032890286296606, 0.08540567755699158, 0.13707618415355682, 0.00856675487011671, 0.02824411354959011], [-0.2724383771419525, 0.20010077953338623, 0.25247111916542053, -0.11098669469356537, 0.08086336404085159, -0.025900673121213913, -0.07541469484567642, -0.07916198670864105, 0.13014626502990723, 0.13385413587093353, 0.04442166909575462, -0.05930095165967941, -0.12010405957698822, 0.3118979036808014, 0.13110658526420593, 0.08290036767721176, 0.12330524623394012, 0.014270413666963577, -0.12257598340511322, -0.05656340345740318, 0.025537734851241112, 0.07814088463783264, 0.07140876352787018, 0.056485582143068314, -0.00771000050008297], [-0.3057279586791992, -0.006835796404629946, 0.0845344066619873, -0.09660042077302933, 0.01876724511384964, 0.05233609676361084, 0.07060279697179794, 0.06704298406839371, 0.07299556583166122, 0.06201312690973282, 0.016088154166936874, 0.11486224085092545, 0.19679386913776398, -0.11111971735954285, -0.26597145199775696, 0.15834878385066986, 0.2684919834136963, 0.09452568739652634, 0.06783276051282883, 0.05128638446331024, -0.007213224656879902, -0.11163916438817978, -0.08115358650684357, 0.03732332959771156, 0.05059049278497696], [0.05994398146867752, 0.08162223547697067, 0.01783016324043274, -0.13540109992027283, -0.25854507088661194, -0.08187182247638702, 0.015398889780044556, 0.01847783289849758, 0.008437827229499817, 0.053682368248701096, -0.010453418828547001, 0.008416391909122467, 0.0872764065861702, -0.15418054163455963, 0.1996949315071106, 0.048713698983192444, -0.09026911109685898, 0.06852325797080994, -0.019585546106100082, 0.0039557539857923985, 0.06577157974243164, 0.10686489939689636, -0.008581948466598988, -0.10808336734771729, -0.10918521881103516], [-0.056850988417863846, -0.1332632601261139, -0.11211379617452621, -0.11300389468669891, 0.0838925838470459, 0.13385756313800812, 0.12294672429561615, -0.03641895949840546, -0.11537414789199829, -0.010566934011876583, 0.10348007827997208, 0.03752818703651428, 0.012567862868309021, -0.1957259178161621, 0.16272751986980438, -0.2845010757446289, -0.16432452201843262, -0.18031716346740723, -0.12732170522212982, -0.062142133712768555, 0.08821674436330795, 0.0801486000418663, -0.033321455121040344, 0.023198271170258522, 0.006287545897066593], [-0.08547273278236389, -0.1633356362581253, 0.2093878537416458, 0.047420937567949295, 0.015397592447698116, -0.11793049424886703, -0.04120475426316261, -0.1030988022685051, 0.05693039670586586, 0.1407574564218521, 0.15511709451675415, 0.13105881214141846, 0.1544037014245987, 0.18851138651371002, -0.09314408898353577, -0.16602683067321777, 0.14646394550800323, 0.09273190796375275, -0.2381107211112976, -0.3261277377605438, -0.08571207523345947, 0.05067801475524902, 0.008180941455066204, -0.023435231298208237, -0.019692400470376015], [-0.02278534695506096, 0.09303400665521622, 0.09698621928691864, -0.2248162478208542, -0.037345025688409805, 0.15564589202404022, 0.1411191076040268, 0.0880948081612587, 0.13862742483615875, 0.05752526968717575, -0.05417478829622269, -0.03427310660481453, 0.009576295502483845, -0.20694079995155334, 0.1799239069223404, -0.007355091627687216, -0.256720632314682, 0.05370107293128967, 0.07002168893814087, 0.12319637835025787, 0.0890984907746315, 0.0019609250593930483, 0.04054500535130501, -0.08753780275583267, -0.11218710243701935], [-0.028327347710728645, -0.007867060601711273, 0.012437097728252411, 0.2265508621931076, 0.014884816482663155, -0.015514732338488102, 0.006176119204610586, 0.06085504963994026, -0.23836292326450348, -0.17567722499370575, -0.1110294759273529, 0.04292374104261398, 0.014543340541422367, -0.05537353828549385, 0.027822155505418777, 0.19660647213459015, 0.2041940838098526, 0.01419861800968647, 0.11303210258483887, 0.0652647614479065, -0.012107222341001034, -0.11165167391300201, -0.18630020320415497, -0.16874416172504425, -0.17814688384532928], [-0.24771970510482788, 0.01125581655651331, 0.01893617771565914, 0.018288610503077507, -0.1802903264760971, -0.1608901172876358, -0.12166094034910202, -0.06491030007600784, -0.06166527792811394, -0.04463401064276695, 0.05243757367134094, 0.16173160076141357, 0.23498404026031494, -0.09260408580303192, 0.21092616021633148, -0.23030425608158112, 0.1818431317806244, 0.15327845513820648, 0.1788240373134613, 0.06606419384479523, -0.12936151027679443, -0.018732469528913498, 0.034146811813116074, -0.05534986034035683, -0.097147636115551], [0.024393558502197266, 0.15921054780483246, 0.11241237819194794, 0.09341347217559814, -0.07286155968904495, 0.10395826399326324, 0.04791850224137306, -0.1540982872247696, -0.2021649181842804, -0.1649053394794464, -0.03311477601528168, 0.08318071812391281, 0.013995165005326271, 0.23773039877414703, -0.06048068031668663, -0.31550735235214233, -0.23533573746681213, -0.15357574820518494, -0.043416138738393784, -0.048071201890707016, 0.06648166477680206, 0.13054534792900085, 0.14878536760807037, 0.201934352517128, 0.1758446842432022], [0.2771257162094116, 0.11613035947084427, 0.14215868711471558, 0.005218884442001581, 0.1583729088306427, 0.046852290630340576, 0.07028961181640625, 0.12720349431037903, 0.17887379229068756, 0.17484427988529205, 0.22294339537620544, 0.09674444794654846, -0.01728428341448307, -0.018880736082792282, -0.09720800071954727, 0.14163029193878174, 0.019740160554647446, -0.08071490377187729, -0.0645240992307663, 0.034606579691171646, 0.049313463270664215, -0.05073248967528343, -0.03445378318428993, -0.0069128479808568954, -0.09280145168304443], [-0.18306265771389008, 0.00396000687032938, 0.08265456557273865, -0.16547711193561554, -0.1886759251356125, 0.15749067068099976, 0.041781291365623474, 0.07039669156074524, 0.04331911727786064, -0.0007344690384343266, -0.10670012980699539, 0.045564450323581696, -0.07393796741962433, -0.02062750793993473, 0.13409769535064697, 0.06433872878551483, 0.23597826063632965, 0.03158415108919144, -0.005468517076224089, 0.0672730803489685, -0.04669397324323654, 0.09196142852306366, 0.07998475432395935, 0.18487749993801117, 0.256645530462265], [0.012328960001468658, -0.15550778806209564, -0.12344543635845184, -0.029366565868258476, -0.07902895659208298, 0.03749982640147209, 0.06612078100442886, 0.10852492600679398, 0.034408073872327805, 0.009879020974040031, -0.05983777344226837, 0.005807036533951759, -0.012328372336924076, -0.0885654091835022, -0.01551022194325924, -0.29378393292427063, 0.05100948363542557, -0.12095905095338821, -0.2668169140815735, -0.2894403040409088, -0.2737264037132263, -0.4429597556591034, -0.3555207848548889, -0.32506251335144043, 0.25389090180397034]], "features.0.bias": [-0.030358944088220596, 0.009039556607604027, -0.09979904443025589, 0.16858839988708496, 0.2112947404384613, 0.20630328357219696, -0.06986464560031891, 0.07501169294118881, 0.057805005460977554, 0.1543564796447754, 0.09850432723760605, -0.022386491298675537, 0.08416924625635147, 0.11810827255249023, 0.16099579632282257, 0.11663670837879181, 0.1964235007762909, -0.046415288001298904, -0.078004390001297, -0.09234482795000076, 0.22942593693733215, 0.10552747547626495, -0.07285179197788239, 0.1591925173997879, -0.23518583178520203, 0.09666871279478073, 0.10616246610879898, 0.009138073772192001, 0.047636475414037704, -0.035255078226327896, -0.02761206589639187, 0.20305660367012024, -0.15662093460559845, -0.001492809155024588, -0.10465541481971741, 0.19025099277496338, -0.010919864289462566, 0.040529344230890274, 0.10969614237546921, -0.051605742424726486, 0.20266243815422058, 0.08988653123378754, 0.019656727090477943, -0.16926133632659912, 0.009110510349273682, 0.1690898835659027, -0.03643440827727318, 0.042521052062511444, 0.1812995970249176, -0.16836868226528168], "features.1.weight": [[0.08959145098924637, 0.031751781702041626, -0.1681443601846695, 0.11190503090620041, 0.036298271268606186, 0.18532735109329224, -0.004052558448165655, -0.0919506698846817, 0.09709198027849197, 0.10580137372016907, -0.11663683503866196, -0.1643996685743332, -0.020686646923422813, 0.11921478062868118, 0.07708019018173218, 0.11577945947647095, 0.12370187044143677, -0.08259366452693939, 0.15139509737491608, 0.019873227924108505, 0.12030152976512909, -0.0200777817517519, 0.09620139747858047, 0.006396702956408262, -0.08845331519842148, -0.03536370024085045, -0.011242754757404327, 0.00430566631257534, 0.019299646839499474, 0.20010729134082794, -0.105581134557724, -0.011819410137832165, -0.08626224845647812, -0.11361979693174362, 0.06944511830806732, -0.05321718752384186, 0.022541789337992668, -0.05378781631588936, 0.08522000908851624, -0.09112509340047836, 0.19914217293262482, 0.12000115215778351, -0.10570671409368515, -0.028982555493712425, 0.04140238091349602, -0.08698219805955887, 0.1532210111618042, -0.018314722925424576, -0.06934528797864914, -0.051055941730737686], [0.09457436949014664, -0.13438712060451508, -0.18906638026237488, 0.1169051006436348, -0.06727568060159683, 0.026920156553387642, 0.04015852138400078, 0.06798277050256729, -0.10528051853179932, 0.04619680345058441, 0.12188681215047836, 0.10158538073301315, 0.0023596901446580887, -0.15080951154232025, 0.044580377638339996, 0.018146205693483353, -0.056093163788318634, -0.13625188171863556, -0.015766656026244164, 0.0807098001241684, 0.17097996175289154, 0.0494377464056015, 0.04865071922540665, 0.11046416312456131, -0.14835666120052338, 0.09502577781677246, -0.030978044494986534, 0.11099015176296234, -0.09576404094696045, 0.06883200258016586, 0.1567193567752838, 0.16371531784534454, 0.07041249424219131, 0.09155411273241043, -0.006221082527190447, -0.20259685814380646, 0.10512503981590271, -0.026854712516069412, -0.04733971133828163, -0.08277773857116699, 0.004210117273032665, -0.06576529890298843, 0.023334210738539696, 0.06853147596120834, 0.1638306826353073, -0.24686959385871887, -0.0721571296453476, 0.038478121161460876, -0.036347027868032455, -0.1338735967874527], [0.06892861425876617, -0.17003633081912994, 0.39973682165145874, -0.14690124988555908, -0.13593582808971405, -0.03914249688386917, -0.02417713962495327, 0.044349029660224915, 0.05726103112101555, -0.07187725603580475, 0.17070503532886505, -0.16302748024463654, -0.11990915238857269, -0.06431972235441208, -0.04942086338996887, 0.08399402350187302, -0.10209129750728607, 0.029907507821917534, -0.08842470496892929, -0.10167326033115387, -0.02988579496741295, -0.021819816902279854, 0.07788793742656708, 0.05316631495952606, 0.2582208216190338, 0.05799894407391548, -0.14396724104881287, 0.14446060359477997, -0.03909657150506973, -0.0014477004297077656, -0.03406514227390289, -0.06050169840455055, -0.04948454350233078, 0.13944755494594574, -0.035885442048311234, -0.06699265539646149, 0.09030107408761978, -0.11384518444538116, -0.024675041437149048, 0.14835654199123383, -0.1157560721039772, 0.15156333148479462, 0.19751983880996704, 0.037673287093639374, 0.2349451780319214, -0.025698618963360786, 0.02304375171661377, -0.26170793175697327, 0.19194328784942627, -0.065003402531147], [-0.012473329901695251, -0.043245501816272736, -0.03794585168361664, -0.1635598987340927, 0.13316816091537476, 0.009592456743121147, 0.09270445257425308, -0.023746183142066002, 0.08168799430131912, -0.020048856735229492, -0.041216589510440826, 0.09964100271463394, -0.01949094794690609, -0.15782539546489716, -0.03009244054555893, 0.10542995482683182, 0.11891668289899826, 0.11040065437555313, -0.1233035996556282, -0.0800512433052063, -0.1230662390589714, 0.02125576324760914, 0.07927536964416504, 0.032380349934101105, -0.058327559381723404, 0.10809335857629776, 0.05681034177541733, 0.09678923338651657, -0.0605345293879509, 0.11048198491334915, 0.1135978102684021, -0.009036806412041187, 0.13309384882450104, 0.07298935204744339, -0.059920452535152435, 0.15828022360801697, 0.05127226188778877, 0.15345270931720734, 0.01628708280622959, -0.016613148152828217, -0.09803246706724167, 0.1333453208208084, 0.07984885573387146, 0.08503245562314987, 0.06807233393192291, 0.017886770889163017, 0.016980787739157677, -0.05308922752737999, -0.11300141364336014, -0.14764513075351715], [-0.08508613705635071, 0.1323469877243042, 0.019442975521087646, -0.09584064781665802, -0.09434051811695099, 0.048000819981098175, -0.07982955127954483, -0.04656580090522766, 0.12722034752368927, 0.07878763228654861, 0.2258259803056717, -0.04466564953327179, -0.07480081170797348, -0.1466052532196045, 0.08264507353305817, -0.08883389085531235, 0.012225647456943989, 0.009953203611075878, -0.017025280743837357, -0.006329481489956379, 0.18246214091777802, 0.08047404885292053, 0.0732855424284935, -0.0641426295042038, -0.14710907638072968, 0.10281608998775482, -0.016822075471282005, 0.05274975672364235, 0.00995401106774807, -0.1208866760134697, -0.0366801843047142, -0.09137222170829773, 0.029086291790008545, -0.08094340562820435, 0.06861107051372528, 0.03512021526694298, 0.12014560401439667, 0.0013026774395257235, -0.04116828739643097, 0.04629027843475342, -0.030340095981955528, -0.013242590241134167, 0.03770522400736809, 0.09621613472700119, -0.05228875204920769, 0.14896534383296967, -0.08959189057350159, 0.08726628124713898, 0.11654345691204071, 0.021763017401099205], [-0.0635424479842186, -0.028158199042081833, 0.06831405311822891, -0.10833748430013657, 0.16063682734966278, -0.028461895883083344, -0.019126100465655327, -0.09244254231452942, 0.05500594154000282, -0.08093252032995224, -0.1089162826538086, 0.03234374150633812, -0.0022596095222979784, 0.12362024188041687, -0.04828213155269623, 0.1558530628681183, 0.18449684977531433, 0.20164188742637634, 0.027125952765345573, 0.1787102073431015, -0.1194622740149498, -0.11676502972841263, -0.01821749471127987, 0.05537651106715202, 0.13544140756130219, 0.006983961910009384, 0.10078655928373337, -0.09955202043056488, 0.128292053937912, -0.06083670258522034, -0.04794364422559738, 0.18128688633441925, 0.1348436027765274, -0.17000645399093628, -0.11457653343677521, -0.08627994358539581, -0.11828319728374481, 0.0012753013288602233, -0.09253454208374023, -0.08622895181179047, 0.06042814627289772, -0.07012750208377838, 0.002690204419195652, 0.009619452059268951, -0.08354794979095459, -0.1206384152173996, 0.01337622944265604, 0.025860797613859177, -0.00734546547755599, -0.040023550391197205], [0.09037185460329056, -0.09486687928438187, 0.0755680501461029, 0.07663391530513763, -0.06569305062294006, 0.11314094811677933, -0.12473874539136887, 0.04687362164258957, 0.015331176109611988, -0.04279942438006401, 0.17630960047245026, -0.18728123605251312, -0.018208762630820274, -0.08129573613405228, 0.14163239300251007, 0.01873788796365261, 0.046608004719018936, -0.041275862604379654, -0.094278983771801, -0.06388542801141739, 0.1399865597486496, -0.07861290127038956, -0.06364171206951141, 0.07139057666063309, 0.09491197764873505, 0.13998910784721375, -0.017691200599074364, -0.030531324446201324, -0.07046733796596527, -0.05357305705547333, 0.029721703380346298, 0.020342577248811722, -0.09748867899179459, 0.009879902936518192, 0.1440383940935135, -0.008515903726220131, 0.05935074761509895, -0.07034268230199814, -0.03192361444234848, 0.14983642101287842, 0.06702882796525955, 0.0816003754734993, -0.009406459517776966, -0.037166137248277664, -0.07616574317216873, 0.16605836153030396, -0.05665000528097153, -0.03976929560303688, 0.010477714240550995, -0.09506034106016159], [-0.11789994686841965, -0.162313774228096, -0.13695663213729858, -0.10101277381181717, -0.0033054507803171873, -0.03912462666630745, -0.10988394170999527, -0.10474039614200592, -0.16755537688732147, -0.026914596557617188, -0.06960954517126083, -0.04582434520125389, 0.11159161478281021, 0.05876488983631134, 0.05454527959227562, 0.07619193941354752, 0.11064798384904861, -0.13202717900276184, 0.12427446246147156, 0.03777656331658363, -0.10617445409297943, -0.08103146404027939, 0.1320481151342392, 0.07089175283908844, 0.015310131944715977, 0.06722814589738846, -0.12666410207748413, 0.008696818724274635, 0.012388992123305798, 0.021855726838111877, -0.1448671668767929, 0.13499359786510468, 0.14013059437274933, -0.10497187823057175, 0.0027537597343325615, -0.023340735584497452, 0.11881434172391891, 0.10477457195520401, -0.02924416773021221, 0.02406543307006359, 0.12185198068618774, -0.033323775976896286, -0.11981651932001114, 0.007126884069293737, -0.08310277760028839, 0.0448288768529892, 0.04231330007314682, 0.14922109246253967, 0.07685871422290802, 0.06891852617263794], [-0.065363809466362, -0.15275099873542786, 0.308267742395401, -0.13387621939182281, 0.025282500311732292, -0.005591508001089096, -0.034485988318920135, -0.10875638574361801, 0.018159208819270134, 0.12718138098716736, 0.08763127028942108, 0.029459144920110703, 0.036916349083185196, -0.1310594379901886, 0.03639616444706917, 0.06713546812534332, -0.1350143998861313, -0.030919872224330902, 0.14230817556381226, 0.25278240442276, -0.033189695328474045, 0.034711118787527084, 0.07435736805200577, -0.051636457443237305, 0.14714355766773224, 0.10797767341136932, 0.12170742452144623, -0.011409436352550983, 0.010583466850221157, 0.1831672191619873, -0.08028221130371094, -0.15070176124572754, -0.14124366641044617, 0.08094619959592819, 0.0987008586525917, -0.04903733730316162, 0.09696033596992493, -0.05249898135662079, 0.11144550144672394, -0.054411519318819046, -0.01429022941738367, 0.033625278621912, 0.10564658790826797, 0.091280996799469, 0.04607803747057915, 0.08044470846652985, -0.07444450259208679, 0.12973955273628235, 0.14779715240001678, 0.062344688922166824], [0.14411447942256927, -0.07004034519195557, -0.2520994246006012, -0.11819297075271606, -0.06997859477996826, 0.09624344110488892, -0.010453926399350166, -0.14167122542858124, 0.060565292835235596, 0.1422225832939148, -0.25704243779182434, 0.10063515603542328, -0.0736796036362648, 0.07499381899833679, -0.09661229699850082, -0.08492991328239441, 0.06693804264068604, 0.0689527839422226, 0.02792794443666935, 0.16744129359722137, -0.09772869199514389, -0.024955246597528458, -0.13306784629821777, 0.0741782933473587, 0.4934661090373993, -0.07865167409181595, 0.00651790015399456, 0.09104614704847336, 0.1385684311389923, 0.053422119468450546, 0.03031047433614731, -0.0948348417878151, 0.04424770921468735, -0.13725483417510986, 0.051674727350473404, -0.02825544960796833, -0.20480217039585114, -0.15442447364330292, -0.1461237370967865, -0.08268464356660843, 0.033517368137836456, 0.02194874733686447, 0.030367614701390266, 0.0008752678404562175, -0.0186478178948164, -0.06876687705516815, -0.055440448224544525, 0.10699567943811417, -0.17769581079483032, 0.10000663995742798], [-0.059360671788454056, -0.103704072535038, -0.011584355495870113, 0.004229738377034664, 0.05832168832421303, 0.07819420844316483, -0.07644864171743393, 0.1362619400024414, 0.18967953324317932, -0.07720167189836502, -0.07354797422885895, 0.12869976460933685, 0.13765837252140045, -0.12085938453674316, 0.09407573938369751, 0.145939901471138, 0.12910999357700348, -0.008317817933857441, -0.3070579767227173, -0.025843506678938866, -0.2032575011253357, 0.01607627235352993, -0.007813149131834507, -0.023011885583400726, 0.019002042710781097, 0.016034768894314766, -0.1526041179895401, 0.01281821634620428, -0.033977210521698, 0.0801735371351242, -0.10895949602127075, 0.002870624652132392, -0.009129131212830544, 0.16689200699329376, 0.014300276525318623, 0.08733691275119781, 0.15164393186569214, -0.040126726031303406, -0.06543263792991638, -0.06207648664712906, -0.13022558391094208, 0.09553342312574387, -0.005317108239978552, -0.17735272645950317, -0.009141718968749046, -0.0027447552420198917, 0.10846492648124695, -0.07933968305587769, 0.005406766664236784, 0.24258367717266083], [0.020821454003453255, -0.019654296338558197, -0.08425557613372803, -0.1338050812482834, 0.04084808751940727, 0.1531335562467575, -0.005550780333578587, 0.05927881971001625, -0.02362319454550743, -0.07970143109560013, 0.038204535841941833, 0.10280083864927292, -0.05545973777770996, 0.21232794225215912, -0.04248368367552757, 0.025323672220110893, 0.09337330609560013, 0.039525970816612244, 0.042184773832559586, 0.07292395830154419, -0.010922999121248722, -0.08622615784406662, 0.002575378865003586, 0.03125309944152832, 0.11053232103586197, -0.16964122653007507, 0.10215263813734055, -0.07611890137195587, 0.1483670175075531, 0.05506658926606178, 0.12892752885818481, 0.10682971030473709, -0.12510807812213898, -0.12201207131147385, 0.0412178598344326, 0.16456446051597595, -0.004042366519570351, -0.035820554941892624, 8.22360671008937e-05, -0.039303556084632874, -0.03201089799404144, 0.10931754857301712, 0.13155575096607208, -0.013748143799602985, 0.02758791856467724, -0.0648898184299469, -0.0936146080493927, 0.00708320876583457, 0.07182984054088593, -0.17269748449325562], [0.007763773202896118, 0.022939659655094147, 0.0329914316534996, -0.10392728447914124, -0.3299355208873749, -0.02670780010521412, 0.06480178982019424, -0.04049660265445709, -0.04554155468940735, -0.04074457660317421, -0.05556192621588707, -0.07422924041748047, 0.030247000977396965, 0.044286541640758514, 0.11960216611623764, 0.1201283410191536, 0.17390862107276917, 0.08585542440414429, -0.15544357895851135, 0.04935203492641449, -0.00016819799202494323, -0.3302134573459625, -0.12378417700529099, -0.13929811120033264, -0.14279551804065704, 0.06098462641239166, 0.016871677711606026, 0.026161428540945053, -0.1309467852115631, -0.2022794485092163, 0.055932119488716125, 0.039094120264053345, 0.11473298072814941, 0.014524639584124088, -0.04585696756839752, 0.17851340770721436, 0.05117810145020485, 0.012032439932227135, -0.0009668502607382834, 0.12757329642772675, -0.09271445125341415, 0.15904131531715393, -0.016883116215467453, -0.30241158604621887, -0.23263539373874664, -0.06184559315443039, -0.1152736097574234, 0.05255967378616333, -0.00037115803570486605, -0.09384731203317642], [0.055035028606653214, -0.06540579348802567, -0.33729371428489685, -0.04076133668422699, -0.021020222455263138, -0.1260976493358612, 0.07753493636846542, 0.0964798852801323, 0.003990589175373316, 0.03616604581475258, -0.07798939943313599, -0.06948669254779816, 0.018986042588949203, 0.02791634015738964, -0.05175140127539635, 0.02582669071853161, 0.21120305359363556, -0.050633788108825684, -0.027325421571731567, 0.06982826441526413, -0.05314574018120766, 0.06818713247776031, -0.058644067496061325, 0.12531393766403198, 0.1255018711090088, -0.14328770339488983, 0.08528585731983185, -0.1318470686674118, 0.07341626286506653, -0.03924141451716423, -0.05572345480322838, -0.018507223576307297, 0.06541037559509277, -0.10859739780426025, 0.024371594190597534, -0.05783071741461754, 0.025872012600302696, -0.08157560974359512, -0.19908584654331207, -0.15205205976963043, 0.15516917407512665, -0.02163032628595829, -0.05582583323121071, -0.012336250394582748, -0.052560459822416306, -0.07655457407236099, 0.011307788081467152, 0.09586527198553085, -0.0840880498290062, -0.018670104444026947], [0.060638487339019775, -0.3084583282470703, 0.0898103192448616, 0.13706591725349426, -0.2839006185531616, 0.10076247155666351, 0.01167964655905962, -0.11978229880332947, -0.19038622081279755, -0.022213174030184746, -0.0580703541636467, 0.13320372998714447, -0.13095512986183167, 0.10469233244657516, -0.030738111585378647, -0.16953355073928833, -0.08687250316143036, -0.1334226280450821, 0.049542102962732315, 0.04284518584609032, 0.08407758921384811, 0.0593118853867054, 0.027133241295814514, 0.08604810386896133, 0.046223919838666916, -0.0032185963355004787, 0.2046082764863968, 0.11201751977205276, 0.058505989611148834, -0.21606720983982086, 0.16239437460899353, -0.07073424011468887, -0.021905874833464622, -0.17419113218784332, 0.1376340240240097, 0.01067968737334013, -0.11469319462776184, 0.03142867982387543, 0.08099068701267242, 0.09909596294164658, -0.0312183927744627, -0.3684830367565155, -0.06954193115234375, 0.016005968675017357, 0.08801501989364624, -0.022360842674970627, -0.25552329421043396, 0.06053221970796585, 0.07484833896160126, -0.25984466075897217], [-0.28428366780281067, 0.15208759903907776, 0.06405239552259445, -0.02349819242954254, -0.0760490819811821, 0.08010096848011017, 0.12944769859313965, 0.11978927999734879, 0.05977350473403931, -0.17266768217086792, 0.0025942844804376364, -0.1078314259648323, 0.0803387239575386, -0.013687973842024803, 0.053506117314100266, 0.21056023240089417, -0.05180886387825012, 0.08069289475679398, -0.1912507563829422, -0.024603888392448425, -0.07843050360679626, -0.07175563275814056, 0.0029289107769727707, 0.06535481661558151, -0.03433731943368912, -0.012951071374118328, -0.21722809970378876, -0.05788794532418251, -0.15133416652679443, 0.09667280316352844, 0.0063739921897649765, 0.06861025840044022, -0.07632047683000565, 0.05169828236103058, -0.06646492332220078, -0.14539147913455963, 0.17860497534275055, 0.0590975321829319, -0.13520735502243042, -0.07653840631246567, 0.024013537913560867, 0.09816841781139374, -0.06523836404085159, -0.21962912380695343, 0.08366753906011581, -0.10404766350984573, -0.0642457902431488, 0.040556199848651886, -0.09371846169233322, -0.1265624612569809], [-0.013959978707134724, -0.07162895798683167, -0.19016148149967194, -0.047695890069007874, 0.06000932306051254, 0.026062417775392532, 0.014505467377603054, 0.06485893577337265, -0.08704010397195816, -0.0777374729514122, 0.056825872510671616, 0.05757089704275131, 0.01954082027077675, 0.12155387550592422, 0.12133699655532837, -0.02539116144180298, 0.0823073610663414, -0.00874280370771885, 0.0267063919454813, 0.09553837031126022, 0.1333359330892563, 0.08527624607086182, 0.1270700842142105, 0.14987820386886597, -0.07708103954792023, -0.0939517691731453, 0.013022206723690033, 0.0686420425772667, 0.1650012582540512, 0.043761227279901505, 0.042815279215574265, 0.09568505734205246, 0.011431217193603516, 0.005244949832558632, -0.030655698850750923, -0.11581449955701828, 0.0032754377461969852, -0.07164894044399261, 0.033901914954185486, 0.08637019991874695, 0.024708451703190804, 0.005886507220566273, -0.006309067364782095, 0.10899978876113892, 0.007692565675824881, 0.054405778646469116, 0.12968072295188904, -0.10397902876138687, -0.05186332017183304, -0.14866700768470764], [-0.062175363302230835, -0.1550610214471817, -0.06861713528633118, 0.02733653411269188, -0.0977780818939209, 0.05989008769392967, 0.14868013560771942, -0.2014070600271225, -0.09947362542152405, -0.11247365176677704, 0.03544380143284798, 0.0025370351504534483, 0.009241296909749508, 0.061165254563093185, 0.06688540428876877, 0.11842174828052521, -0.07877745479345322, -0.09612643718719482, 0.07045233994722366, 0.07221196591854095, -0.045524924993515015, 0.10066699981689453, 0.041279103606939316, -0.0035632927902042866, 0.08545321971178055, 0.0396810807287693, -0.1452530026435852, -0.018366383388638496, -0.10264842212200165, -0.027394983917474747, 0.029461916536092758, 0.07113410532474518, -0.042111415416002274, 0.09755972772836685, -0.0203731469810009, 0.21958504617214203, -0.0664031133055687, -0.05592698976397514, -0.04097747430205345, 0.04435311630368233, 0.046043410897254944, 0.09821914881467819, 0.04135460779070854, -0.018064092844724655, 0.013908471912145615, -0.1320827305316925, 0.1062750592827797, 0.04247662052512169, 0.04090982675552368, -0.11117497086524963], [-0.031083237379789352, -0.021588748320937157, 0.10873562097549438, 0.019207051023840904, 0.13100051879882812, -0.09830314666032791, 0.026773275807499886, -0.0366513691842556, 0.008729493245482445, -0.08958906680345535, 0.16337911784648895, -0.03867599740624428, 0.11359083652496338, -0.017491823062300682, -0.009547960013151169, 0.014889691025018692, 0.010790349915623665, -0.1783672720193863, -0.08326942473649979, -0.11481449753046036, 0.0702110081911087, -0.07586071640253067, 0.1461418867111206, 0.07693824917078018, -0.8524904251098633, 0.10848890244960785, 0.03939194232225418, 0.07339958101511002, -0.06733109056949615, 0.008562796749174595, -0.031509753316640854, 0.05750323832035065, 0.01680860109627247, 0.052246734499931335, -0.040394145995378494, 0.046320341527462006, 0.07880820333957672, 0.1038689911365509, 0.028549861162900925, 0.059985071420669556, 0.0706447884440422, -0.06011772155761719, -0.050326235592365265, 0.07634688913822174, -0.031676035374403, 0.0882156640291214, -0.03438389301300049, -0.06031935662031174, 0.01307573914527893, 0.06868939846754074], [-0.03640829771757126, 0.07650668174028397, -0.14676976203918457, 0.00584987411275506, -0.007647994440048933, 0.012375631369650364, -0.029147716239094734, 0.03119325265288353, -0.11483114957809448, 0.1729683130979538, 0.02678072452545166, -0.0323648639023304, 0.0491722971200943, -0.11551394313573837, 0.062459077686071396, -0.009739675559103489, 0.016278166323900223, 0.011657762341201305, 0.03912177309393883, 0.15879271924495697, -0.10120652616024017, -0.08402501791715622, -0.14955173432826996, -0.08016760647296906, -0.03285185620188713, 0.05208718404173851, 0.1627713143825531, -0.1468735784292221, 0.20419541001319885, -0.10326510667800903, 0.08794700354337692, -0.09780558198690414, -0.07517432421445847, -0.035201333463191986, -0.10641975700855255, 0.1454283893108368, -0.01971241645514965, 0.08082755655050278, 0.0686860978603363, 0.09273488819599152, -0.10678639262914658, 0.02424597181379795, 0.0247577466070652, -0.029482074081897736, -0.09453896433115005, 0.06707963347434998, 0.07154655456542969, -0.051486216485500336, 0.06935959309339523, -0.005591367371380329], [0.10441216081380844, -0.02164689637720585, -0.10977774858474731, -0.014158975332975388, -0.14379030466079712, -0.09126833826303482, -0.07211663573980331, 0.10548862814903259, -0.14454418420791626, -0.06468360871076584, -0.04463011771440506, 0.06644010543823242, -0.1699451506137848, 0.07720506191253662, 0.029701050370931625, 0.13414882123470306, 0.09774543344974518, -0.06256359070539474, 0.09637229144573212, 0.03285334259271622, -0.1599254310131073, 0.036077093333005905, -0.1301104724407196, 0.0369151271879673, 0.030583353713154793, -0.10988650470972061, 0.10534749925136566, 0.02414834499359131, -0.03831624984741211, -0.3040253818035126, -0.036453068256378174, -0.18573561310768127, 0.0830199122428894, -0.013792718760669231, 0.059166476130485535, 0.08420995622873306, 0.03363451734185219, 0.16964273154735565, -0.047867514193058014, 0.1092025563120842, -0.03164149820804596, 0.12314117699861526, -0.130316823720932, 0.028172677382826805, -0.21828323602676392, 0.07238303869962692, -0.03275220841169357, -0.020535409450531006, 0.11736918985843658, 0.07410897314548492], [0.05485619977116585, 0.084577776491642, 0.043622490018606186, -0.10068568587303162, -0.06956992298364639, 0.1179203987121582, -0.11259640753269196, 0.1761201024055481, 0.1591636687517166, 0.09689082205295563, -0.005421073641628027, -0.031202126294374466, -0.13741351664066315, -0.012970424257218838, -0.041082195937633514, -0.09434831142425537, 0.051616210490465164, 0.03604090213775635, 0.15606281161308289, 0.05566577985882759, -0.09785953164100647, -0.043250177055597305, 0.20148183405399323, -0.09226743131875992, -0.01178752351552248, 0.17450886964797974, -0.0002947403700090945, 0.0037246739957481623, -0.08184603601694107, 0.051355574280023575, 0.0035465755499899387, -0.04694687947630882, -0.0980592593550682, -0.08620492368936539, 0.07696616649627686, 0.03330547362565994, 0.02898281067609787, 0.09473668783903122, 0.08210870623588562, -0.1076793447136879, -0.14396916329860687, 0.07441738992929459, 0.017892615869641304, 0.012526134960353374, -0.12933994829654694, -0.13770438730716705, 0.18755073845386505, 0.05055268108844757, 0.06371241807937622, 0.21873803436756134], [0.16126863658428192, 0.0020778155885636806, -0.047753944993019104, -0.08560018241405487, 0.026776982471346855, -0.2432391196489334, 0.06443650275468826, -0.05117121338844299, 0.0592590756714344, -0.024577651172876358, -0.004357410594820976, 0.01831902749836445, 0.00995926558971405, 0.12186305969953537, 0.1780412495136261, -0.03972991555929184, 0.10109870880842209, 0.021280715242028236, 0.01568072848021984, 0.03848744183778763, -0.14135465025901794, -0.07316967099905014, 0.021359045058488846, -0.032888781279325485, 0.18683092296123505, 0.0996081605553627, 0.07793809473514557, 0.11114644259214401, 0.048474278301000595, 0.06550267338752747, -0.05586288869380951, -0.1392887681722641, 0.029143458232283592, -0.06363750994205475, -0.13426800072193146, 0.1962336301803589, 0.07287538796663284, 0.19627375900745392, 0.03163350000977516, -0.04483064264059067, 0.016038063913583755, 0.013931728899478912, -0.05293412506580353, 0.028650395572185516, 0.16247883439064026, 0.05731629952788353, -0.0632924884557724, -0.06281296163797379, -0.018017616122961044, 0.04837748780846596], [-0.4027569591999054, 0.09187216311693192, 0.10885929316282272, -0.0892409160733223, -0.020948322489857674, 0.11734358966350555, 0.11874081194400787, -0.14819937944412231, 0.10895602405071259, -0.01831662282347679, 0.06424394994974136, 0.07723687589168549, 0.10826325416564941, -0.17136797308921814, -0.07677793502807617, 0.024820948019623756, 0.09677357226610184, 0.019838083535432816, 0.023026656359434128, 0.10519959777593613, 0.049663230776786804, 0.14657452702522278, 0.12450996041297913, 0.06882970780134201, 0.010510646738111973, 0.16558463871479034, 0.01636294461786747, -0.1942063868045807, 0.08141986280679703, -0.00953626073896885, 0.14847642183303833, -0.05259821191430092, -0.18112380802631378, -0.1160765290260315, -0.0033122478052973747, -0.11975660175085068, -0.03369016945362091, -0.029316861182451248, -0.03805026784539223, -0.025806520134210587, -0.08193417638540268, -0.12056434899568558, -0.030767621472477913, 0.00028781546279788017, 0.1206221953034401, -0.05433109775185585, 0.08495427668094635, -0.004114942625164986, 0.04008018597960472, -0.03650185465812683], [0.015651885420084, 0.1535174697637558, -0.2553226947784424, 0.07414684444665909, 0.08974523097276688, -0.06158050522208214, 0.11344971507787704, 0.12313723564147949, 0.09390348196029663, 0.143672913312912, -0.003692150581628084, 0.03964151069521904, 0.061074528843164444, -0.20253436267375946, 0.07956918329000473, 0.1155674159526825, -0.04750165715813637, 0.18078863620758057, -0.05962959676980972, 0.020483331754803658, -0.14008593559265137, -0.01612587459385395, -0.03703693300485611, -0.011064733378589153, -0.12765935063362122, 0.006024193949997425, -0.03877256438136101, -0.10094813257455826, 0.0794702023267746, -0.030861690640449524, 0.07893376797437668, -0.01632947288453579, 0.03228170424699783, -0.14941416680812836, 0.1042814776301384, 0.03642154112458229, -0.11862777173519135, -0.0023252423852682114, -0.12025763839483261, -0.1154717206954956, -0.0695628970861435, -0.06033536046743393, -0.08406645804643631, 0.09398401528596878, -0.021151192486286163, -0.014092214405536652, -0.12888160347938538, 0.16272564232349396, 0.050849828869104385, -0.04878612607717514], [-0.04508248716592789, 0.13040316104888916, 0.022154927253723145, -0.031560108065605164, 0.08879448473453522, -0.01085353922098875, -0.15260836482048035, 0.08458132296800613, -0.04545101523399353, 0.05665389820933342, 0.06327144056558609, -0.09804962575435638, 0.1237064078450203, -0.011501510627567768, -0.17051999270915985, -0.13297685980796814, 0.0672442838549614, 0.02175452560186386, 0.1618380844593048, -0.04550529643893242, 0.06772731244564056, -0.014384567737579346, 0.022055475041270256, -0.08605825155973434, 0.007940744049847126, -0.1740131676197052, 0.0357540100812912, -6.835856765974313e-06, 0.08135762810707092, 0.09092391282320023, 0.037912726402282715, 0.10048489272594452, -0.000960803241468966, -0.04973449558019638, -0.11999260634183884, -0.11746299266815186, 0.02088368684053421, 0.15363338589668274, 0.04714566096663475, -0.12954550981521606, 0.04376381263136864, 0.04653288424015045, 0.05158085376024246, -0.08850398659706116, 0.008898790925741196, -0.059390585869550705, -0.07342053949832916, 0.057116735726594925, 0.14307428896427155, -0.16674606502056122], [0.15601152181625366, 0.1215473860502243, -0.03600466251373291, -0.09678953886032104, -0.026575550436973572, -0.12987180054187775, -0.07525293529033661, -0.05048232525587082, 0.12378711253404617, -0.1700780838727951, 0.07823559641838074, -0.05179854854941368, 0.08925645053386688, -0.20948615670204163, 0.07916922867298126, 0.1672709733247757, 0.1412377506494522, -0.1032605916261673, -0.08261357247829437, 0.051069580018520355, 0.02831105887889862, -0.013068074360489845, 0.06753227859735489, 0.03291245922446251, 0.05516359955072403, -0.00988775584846735, -0.14557278156280518, 0.1652958244085312, 0.11776120960712433, 0.016695678234100342, -0.06384234875440598, -0.1433127373456955, -0.023192282766103745, -0.07825643569231033, 0.07285738736391068, 0.08037909865379333, -0.005032045766711235, -0.0007347906357608736, 0.08460091054439545, -0.066689133644104, -0.12699197232723236, -0.11101296544075012, 0.011632032692432404, 0.004187837243080139, 0.0651390552520752, -0.17080524563789368, -0.11358701437711716, -0.08858942985534668, -0.08542987704277039, 0.0006209564162418246], [0.1022438108921051, 0.0515747033059597, 0.014567368663847446, -0.12661327421665192, 0.046507470309734344, -0.007438958156853914, -0.02541154995560646, 0.1595028191804886, 0.10475341230630875, 0.1454721987247467, -0.011587271466851234, -0.061559420078992844, -0.048049766570329666, -0.0981331542134285, 0.09216856956481934, 0.10836519300937653, 0.11427383869886398, 0.031224127858877182, 0.17211490869522095, 0.06684868782758713, 0.009273640811443329, 0.08141784369945526, -0.0446978323161602, -0.07534168660640717, 0.05672541260719299, -0.05567936226725578, 0.002215692540630698, -0.12492917478084564, -0.08750008791685104, -0.08379478752613068, 0.0698697492480278, 0.005557633936405182, 0.07036393135786057, -0.03416131064295769, -0.11826294660568237, 0.09339885413646698, 0.07931221276521683, -0.05603674054145813, 0.15105845034122467, -0.08391102403402328, 0.07950825989246368, 0.0573875829577446, -0.0658947080373764, -0.10772307962179184, -0.07158908993005753, 0.011717730201780796, -0.13656245172023773, -0.0883224755525589, 0.07073476910591125, 0.1954951286315918], [0.054803699254989624, -0.060400184243917465, 0.008242848329246044, -0.11052223294973373, 0.0763307586312294, 0.04240860790014267, 0.0644386038184166, 0.042496293783187866, 0.06782107800245285, -0.014325952157378197, 0.07690304517745972, 0.15548089146614075, -0.048041656613349915, 0.05141967535018921, 0.09817899763584137, 0.1385677456855774, 0.09332983940839767, -0.024341290816664696, -0.00963024701923132, -0.049431826919317245, -0.15615250170230865, -0.12899157404899597, 0.023796288296580315, -0.01549572218209505, -0.1250709891319275, -0.02597118727862835, 0.009984050877392292, -0.013806231319904327, -0.02496083453297615, -0.06403274089097977, 0.08280250430107117, -0.11273961514234543, 0.028895316645503044, -0.020701853558421135, -0.06278814375400543, 0.06771917641162872, -0.07939397543668747, 0.09625893831253052, -0.09515494108200073, 0.07210998237133026, 0.15551558136940002, 0.17043167352676392, 0.08324572443962097, 0.1269194483757019, -0.03600223362445831, -0.04048481956124306, -0.1280059665441513, 0.08178022503852844, 0.054374270141124725, -0.12642231583595276], [0.10688316076993942, -0.009343558922410011, -0.012473911046981812, -0.12096276879310608, 0.01623840257525444, -0.16662368178367615, 0.16177061200141907, -0.14311648905277252, -0.03837812691926956, 0.09749877452850342, -0.08385279029607773, 0.13035567104816437, -0.1943369209766388, -0.0052330149337649345, 0.04179443418979645, -0.1886395961046219, -0.06378156691789627, 0.11590830236673355, 0.12494007498025894, -0.02610098198056221, -0.04729493334889412, -0.07380843162536621, -0.12135002017021179, 0.08592856675386429, 0.025783447548747063, 0.13215121626853943, 0.04971550777554512, -0.04751832038164139, -0.14127974212169647, -0.30373916029930115, -0.14179587364196777, 0.05358006805181503, -0.04535822942852974, 0.09804173558950424, 0.11853445321321487, 0.20714308321475983, -0.014916469343006611, 0.006533694453537464, -0.08272644132375717, 0.021761246025562286, 0.1260591596364975, -0.06545635312795639, 0.04829464852809906, 0.02380600944161415, 0.010788215324282646, 0.1574975550174713, -0.03152722120285034, -0.15420325100421906, 0.004147020168602467, -0.2157747745513916], [0.0828683152794838, 0.10785353928804398, 0.04655219241976738, 0.057231876999139786, 0.05291934311389923, -0.12631230056285858, -0.06973298639059067, 0.05073849484324455, -0.16004785895347595, 0.0699799433350563, -0.008724100887775421, 0.007393394596874714, 0.061127275228500366, 0.08045801520347595, -0.040502723306417465, -0.03850138932466507, -0.004705503582954407, 0.08916354179382324, 0.0504772812128067, 0.18982607126235962, -0.02171981707215309, 0.005580210592597723, 0.08817453682422638, 0.14484098553657532, 0.2951074540615082, -0.00346224382519722, 0.1332402378320694, 0.03512617573142052, -0.18670423328876495, -0.04396269470453262, 0.04946096986532211, 0.06842011958360672, -0.08173532038927078, 0.029039349406957626, -0.12582817673683167, 0.1289517730474472, -0.12792915105819702, -0.14599081873893738, -0.047148000448942184, 0.020729100331664085, 0.019698966294527054, -0.036445654928684235, -0.032661695033311844, -0.09620041400194168, 0.01322025153785944, 0.006564044859260321, 0.14102788269519806, 0.13954724371433258, -0.09784099459648132, 0.11619570106267929], [0.06134931370615959, 0.007345896679908037, -0.12425602972507477, 0.10851732641458511, 0.06223363056778908, 0.0047813463024795055, -0.1335362195968628, 0.042984265834093094, -0.06019603833556175, -0.08262517303228378, 0.17747177183628082, -0.11835028231143951, 0.042830564081668854, -0.00121446477714926, 0.05120803788304329, 0.05090196803212166, -0.10246093571186066, 0.04801713302731514, -0.005070061888545752, -0.09805570542812347, -0.04649800807237625, 0.07375634461641312, 0.11020097136497498, 0.007551730610430241, 0.0465518981218338, 0.1231335997581482, -0.0013981153024360538, -0.14210297167301178, 0.03466956689953804, -0.011390662752091885, -0.028088334947824478, -0.12429942935705185, -0.02576540596783161, 0.17840184271335602, 0.0031240545213222504, 0.13063830137252808, -0.02654234692454338, 0.0906652882695198, 0.09980902075767517, 0.06793422251939774, 0.03255532309412956, 0.04169553518295288, -0.12987634539604187, -0.04809039831161499, -0.08725324273109436, 0.10732265561819077, -0.03516662120819092, 0.06583553552627563, 0.08401630818843842, -0.04161490127444267], [-0.26616647839546204, -0.10942879319190979, -0.036440715193748474, 0.1332336962223053, -0.12113793939352036, 0.03817425295710564, 0.12913528084754944, -0.1369398534297943, 0.011720959097146988, 0.018825920298695564, -0.03867964819073677, -0.1480516642332077, 0.01629123091697693, -0.053917646408081055, -0.04641347378492355, -0.036212313920259476, -0.0378163605928421, -0.06632216274738312, -0.10101081430912018, 0.1671958863735199, 0.08623076975345612, 0.03957916051149368, 0.13058708608150482, 0.08366888016462326, -0.019476566463708878, 0.030033493414521217, -0.10514704138040543, -0.1527542769908905, 0.11662424355745316, 0.029943929985165596, -0.08620530366897583, 0.028827382251620293, -0.054135508835315704, 0.1175633892416954, -0.08557344228029251, -0.14922142028808594, -0.08610550314188004, -0.06948775798082352, 0.08310404419898987, -0.040740158408880234, -0.11506598442792892, -0.1455855518579483, -0.03544304519891739, -0.09572619944810867, 0.04334918037056923, 0.012033144943416119, 0.08196569979190826, -0.1287614107131958, -0.045960474759340286, -0.06936199963092804], [-0.0654800683259964, 0.21783334016799927, -0.1533607393503189, 0.017104079946875572, -0.07566434144973755, -0.11577543616294861, -0.0022972426377236843, 0.09416695684194565, 0.01968694105744362, -0.09736533463001251, 0.02624271623790264, -0.07246401160955429, -0.24403268098831177, 0.0028322609141469, 0.06763161718845367, 0.04265535622835159, 0.1276865452528, -0.0778249129652977, 0.1902722269296646, 0.013047091662883759, 0.07502265274524689, 0.0513603501021862, -0.15943892300128937, -0.12052631378173828, -0.01854425109922886, -0.09871841222047806, 0.14907170832157135, -0.16340729594230652, 0.1904987245798111, -0.0871848538517952, -0.10431551188230515, 0.03999518230557442, -0.06769658625125885, 0.01419799029827118, -0.12071036547422409, -0.14265668392181396, 0.11905690282583237, 0.06338029354810715, 0.15225447714328766, -0.03790144994854927, -0.051606662571430206, -0.05525965243577957, -0.07778306305408478, -0.04363945499062538, 0.03830886259675026, -0.0009235617471858859, 0.00670753326267004, -0.060389526188373566, 0.04998217150568962, -0.17398832738399506], [-0.0579880028963089, -0.08120964467525482, -0.17987574636936188, 0.13301724195480347, 0.1653325855731964, 0.04794808104634285, 0.19037610292434692, -0.0720900371670723, 0.04491635411977768, 0.16033348441123962, -0.16823387145996094, 0.0942029058933258, -0.06119466945528984, 0.14886833727359772, 0.17487864196300507, 0.019356142729520798, 0.09800181537866592, -0.05356356129050255, -0.10409210622310638, 0.056267160922288895, 0.03874778375029564, 0.11081606149673462, 0.03507927805185318, 0.027293821796774864, -0.20835331082344055, 0.1628013402223587, -0.020915299654006958, -0.014988318085670471, 0.051422081887722015, -0.05999533459544182, 0.11016466468572617, 0.10298032313585281, 0.09922884404659271, -0.11715516448020935, -0.015941446647047997, 0.09633779525756836, -0.03198796883225441, 0.06142144650220871, -0.07981206476688385, 0.029237130656838417, -0.07050061970949173, -0.1186465248465538, -0.014870962128043175, -0.06921771168708801, 0.2023257613182068, 0.049991216510534286, 0.0037683218251913786, -0.02417672984302044, 0.12369491904973984, 0.22634664177894592], [-0.13566650450229645, 0.15818394720554352, 0.1683216691017151, -0.08595244586467743, 0.1255967915058136, -0.11477713286876678, 0.011005483567714691, -0.03151896968483925, 0.011423388496041298, 0.011957847513258457, 0.13917489349842072, 0.01508039515465498, 0.054901834577322006, 0.0637226402759552, 0.11649487167596817, 0.060666974633932114, -0.1077238991856575, 0.08218560367822647, 0.028673673048615456, -0.06115633249282837, -0.12050171196460724, 0.05836913362145424, -0.02135366201400757, 0.0735773891210556, 0.19072465598583221, -0.06792888790369034, -0.05332053080201149, 0.12971392273902893, 0.086493581533432, 0.0354805514216423, -0.02301357313990593, 0.14913569390773773, 0.11230219155550003, 0.021761339157819748, 0.12798745930194855, -0.025130948051810265, 0.08825487643480301, 0.002343029249459505, 0.11263947188854218, -0.010605710558593273, -0.08317930996417999, 0.03422217816114426, 0.050850365310907364, 0.06542940437793732, 0.08044031262397766, 0.04051356390118599, 0.023651709780097008, -0.19453811645507812, -0.03393382951617241, 0.0961650162935257], [0.0943387895822525, 0.016060417518019676, 0.11481120437383652, 0.05566960573196411, 0.044501643627882004, 0.04368370398879051, 0.08300328254699707, 0.11580847203731537, -0.05922714248299599, 0.007203876972198486, 0.1067524179816246, 0.02937159687280655, -0.032775819301605225, 0.014383716508746147, 0.06750796735286713, -0.034200239926576614, -0.0890866294503212, -0.005562130827456713, -0.04551977664232254, -0.12947919964790344, -0.06543014943599701, -0.014482738450169563, 0.10353586077690125, -0.08478854596614838, -0.7123386859893799, -0.012956109829246998, 0.052386846393346786, 0.030801057815551758, -0.07470294088125229, -0.05512453243136406, -0.03223007544875145, -0.02590581402182579, -0.1893032342195511, 0.15637624263763428, -0.041914671659469604, -0.1222708523273468, 0.1262400895357132, -0.03208870440721512, 0.10731330513954163, 0.05920189619064331, 0.0787963792681694, 0.16533426940441132, 0.09725406020879745, 0.05475146323442459, 0.006999777629971504, -0.042396675795316696, 0.048498060554265976, -0.028575710952281952, 0.08376261591911316, 0.04145233705639839], [0.016261707991361618, -0.07962740957736969, -0.02629070356488228, -0.08826915919780731, -0.042917124927043915, 0.023322615772485733, -0.002880620304495096, -0.13897548615932465, -0.011332354508340359, 0.1594703644514084, 0.09903450310230255, 0.07990043610334396, 0.010476945899426937, 0.07193899154663086, 0.061739373952150345, -0.1575036197900772, -0.1263965517282486, -0.048526957631111145, 0.12542961537837982, 0.004269431810826063, 0.15615734457969666, 0.16725189983844757, -0.03605419024825096, 0.14752641320228577, 0.006748783402144909, -0.07320296764373779, -0.10674945265054703, -0.033938486129045486, -0.05481249839067459, 0.13019993901252747, -0.03807039558887482, 0.1514054834842682, 0.10664214193820953, -0.06486836820840836, -0.0899374708533287, 0.026094714179635048, -0.16831211745738983, -0.07242341339588165, 0.03456936031579971, 0.05399005487561226, 0.1719287931919098, -0.025510838255286217, -0.034488849341869354, 0.03650735691189766, 0.04491289332509041, -0.07388519495725632, -0.02841348387300968, 0.01107319351285696, 0.16570723056793213, 0.03858187422156334], [-0.05255069211125374, -0.05469142273068428, 0.049550916999578476, -0.19184356927871704, 0.035096392035484314, -0.058650724589824677, 0.07089579850435257, -0.08101646602153778, 0.013411278836429119, 0.052567776292562485, 0.14883941411972046, 0.008669774979352951, -0.05403044447302818, 0.06633839011192322, -0.057767800986766815, 0.035653624683618546, -0.13972046971321106, 0.035967472940683365, 0.1274881511926651, -0.040833164006471634, 0.019305123016238213, -0.03796793520450592, 0.08736227452754974, -0.030301639810204506, -0.08155927807092667, -0.07703741639852524, -0.07598433643579483, 0.1313130408525467, 0.0319996178150177, 0.15247288346290588, 0.13745176792144775, 0.006478072609752417, -0.006311975419521332, 0.10734045505523682, -0.18706825375556946, 0.0524028055369854, 0.148648202419281, 0.04620278626680374, 0.03813214227557182, 0.08526687324047089, 0.008262678049504757, -0.09565577656030655, -0.040193840861320496, -0.0033483572769910097, 0.05930748209357262, 0.10187624394893646, -0.011423406191170216, -0.14238999783992767, -0.0403890423476696, -0.0697852075099945], [-0.024945169687271118, 0.13065412640571594, -0.10437275469303131, 0.08717131614685059, 0.024002887308597565, -0.06056656315922737, 0.01653268188238144, 0.037956543266773224, 0.13566379249095917, -0.13696667551994324, -0.10993855446577072, -0.1167830154299736, 0.08580338954925537, 0.20830775797367096, 0.06138628348708153, 0.034129247069358826, -0.04020797088742256, -0.14443573355674744, -0.027759497985243797, -0.02163708209991455, 0.07760593295097351, -0.10860949009656906, -0.10729199647903442, -0.05263615772128105, 0.052394673228263855, 0.12062546610832214, -0.017946256324648857, 0.004955625627189875, 0.1401175558567047, 0.12133970856666565, 0.0026562425773590803, 0.029575586318969727, -0.0033335222396999598, -0.06192517653107643, -0.045836884528398514, -0.06372060626745224, 0.07909509539604187, 0.12462487071752548, 0.07877090573310852, 0.11429543048143387, 0.13822144269943237, 0.08912305533885956, -0.008389195427298546, -0.00852105300873518, 0.047426603734493256, -0.07693660259246826, -0.05563103407621384, 0.0036143746692687273, 0.033615417778491974, 0.08954647183418274], [0.08248927444219589, 0.09581895172595978, 0.09683305770158768, 0.035891056060791016, 0.08519318699836731, 0.05383962392807007, -0.018244847655296326, 0.06624194979667664, -0.10454211384057999, -0.03342019394040108, 0.010469246655702591, 0.041466645896434784, 0.16151034832000732, 0.05704939737915993, -0.05707407370209694, 0.04705794155597687, -0.13476939499378204, -0.18983207643032074, -0.06602679193019867, -0.11140496283769608, 0.07602458447217941, 0.056078750640153885, -0.004024747293442488, 0.0688345655798912, 0.20481379330158234, 0.08659404516220093, 0.17496763169765472, 0.0051173060201108456, 0.05644046142697334, 0.13198356330394745, -0.08543068170547485, 0.08477005362510681, -0.03186758980154991, -0.10657725483179092, -0.08914344757795334, 0.08648326992988586, 0.08842872083187103, 0.05023842677474022, 0.04356338456273079, 0.09769522398710251, -0.09344779700040817, -0.05290474742650986, -0.15145491063594818, -0.11850390583276749, 0.07110234349966049, -0.08183977752923965, -0.12616781890392303, 0.08289401978254318, 0.07096809148788452, 0.10234593600034714], [-0.22481641173362732, 0.1681348830461502, -0.0719391331076622, -0.06789413094520569, -0.055682990700006485, 0.021251598373055458, -0.013640718534588814, 0.13561925292015076, 0.10891883820295334, 0.020880138501524925, 0.1014399603009224, 0.05397949367761612, -0.10765420645475388, -0.016201680526137352, -0.12391474843025208, -0.24645084142684937, 0.11117520928382874, -0.024717696011066437, 0.11127260327339172, -0.11442648619413376, 0.07847556471824646, 0.1511387825012207, 0.002450590254738927, -0.09693177789449692, -0.002197383437305689, -0.13697108626365662, 0.21815945208072662, 0.07312124967575073, 0.05560527741909027, -0.08174952119588852, -0.1535833179950714, -0.06320961564779282, -0.011277071200311184, -0.06966039538383484, 0.015376799739897251, 0.13584023714065552, -0.09308107197284698, 0.042587194591760635, -0.043550051748752594, 0.04942842572927475, -0.013151350431144238, -0.07748781144618988, 0.03946622833609581, -0.2500252425670624, 0.11664809286594391, 0.10075549781322479, -0.02559036761522293, -0.13199256360530853, -0.05836949124932289, -0.18550004065036774], [0.10668496042490005, -0.036075297743082047, 0.2652240991592407, -0.10536270588636398, -0.10450807958841324, 0.04179828613996506, 0.10095132142305374, 0.08129226416349411, -0.06944427639245987, 0.13596084713935852, -0.1362738013267517, -0.029985912144184113, 0.1276712715625763, 0.1055680513381958, 0.07189494371414185, -0.04723643139004707, -0.0688166692852974, 0.15188321471214294, 0.07038065046072006, 0.1610296666622162, -0.12089866399765015, 0.12944811582565308, -0.08895072340965271, 0.0880095511674881, -0.12819746136665344, 0.038233622908592224, 0.16466273367404938, -0.10479423403739929, -0.07515139877796173, -0.07126128673553467, 0.04648186266422272, 0.06751663237810135, 0.13979391753673553, 0.1044144555926323, -0.12028837203979492, 0.11658871173858643, 0.11741234362125397, 0.04072706773877144, -0.03402498736977577, 0.06681998819112778, 0.08763408660888672, -0.15764833986759186, -0.0410589762032032, 0.08478404581546783, -0.0877637267112732, 0.09032882004976273, -0.016689274460077286, 0.04189138486981392, -0.014415317215025425, -0.18928125500679016], [-0.08549795299768448, 0.0894634872674942, 0.023724082857370377, -0.21476949751377106, 0.048743896186351776, -0.05205624923110008, -0.04516448825597763, 0.15069793164730072, 0.18108977377414703, 0.048334456980228424, -0.07948659360408783, 0.014430985786020756, 0.057612281292676926, -0.1235523447394371, 0.09468942880630493, 0.02807924710214138, 0.04883555695414543, 0.005866293795406818, -0.10808737576007843, 0.06581012904644012, 0.1015140488743782, -0.06176098436117172, 0.16307471692562103, -0.33261600136756897, 0.042784642428159714, 0.015189992263913155, 0.12033247202634811, 0.043808307498693466, -0.016759509220719337, -0.0976531058549881, 0.13415491580963135, -0.09819317609071732, -0.034402571618556976, 0.08156469464302063, -0.08945868164300919, -0.10699140280485153, -0.020831359550356865, 0.15434785187244415, 0.014424032531678677, -0.08707475662231445, 0.07690632343292236, 0.08939538151025772, 0.061580583453178406, 0.12796223163604736, -0.22827725112438202, -0.015248944982886314, 0.020563215017318726, -0.05825857073068619, -0.05236931890249252, 0.0022934479638934135], [0.08812552690505981, -0.0942981094121933, 0.08069811016321182, 0.024688081815838814, 0.041916172951459885, -0.08803621679544449, 0.11878487467765808, 0.02139159105718136, -0.0885358452796936, -0.14285412430763245, 0.05702807754278183, 0.008234674111008644, -0.12946076691150665, 0.008036968298256397, 0.08808543533086777, -0.03321105241775513, 0.018495026975870132, -0.059379883110523224, -0.06286288797855377, 0.14267542958259583, 0.16307470202445984, 0.061503876000642776, -0.018229873850941658, -0.15332293510437012, -0.1216760203242302, -0.03234240412712097, 0.11882005631923676, -0.012626995332539082, 0.06887833029031754, -0.01747322268784046, 0.057201068848371506, -0.05064380168914795, 0.011483024805784225, 0.12224676460027695, 0.10817450284957886, 0.15287719666957855, -0.04691436141729355, 0.053500354290008545, -0.046695511788129807, -0.06664767116308212, -0.1073666512966156, 0.06980469822883606, 0.021752268075942993, 0.06648347526788712, 0.015430854633450508, 0.15138909220695496, 0.022770654410123825, 0.02172139473259449, 0.13067492842674255, -0.26479870080947876], [0.06468865275382996, -0.13921602070331573, -0.005090724211186171, 0.09243940562009811, 0.04589119181036949, -0.19028370082378387, -0.08790704607963562, 0.013051764108240604, 0.006747819483280182, 0.033913809806108475, 0.07656770944595337, 0.2381286770105362, 0.16715171933174133, 0.03347361087799072, -0.05172016844153404, 0.04603869095444679, -0.1085745170712471, 0.276386559009552, 0.09620554745197296, 0.11110369861125946, -0.06384444981813431, -0.05108773708343506, -0.10657232999801636, 0.07857763767242432, 0.10326886177062988, 0.04354691132903099, -0.15225879848003387, 0.0872710794210434, 0.20199744403362274, 0.16620424389839172, 0.006260382477194071, 0.12805280089378357, -0.03800491616129875, 0.07417906820774078, 0.020221207290887833, 0.14929960668087006, 0.16770653426647186, -0.09326746314764023, 0.08495486527681351, -0.016553960740566254, 0.20744596421718597, -0.05916200950741768, -0.08283712714910507, 0.18561623990535736, 0.1586732417345047, -0.02070319466292858, -0.11348718404769897, 0.1254463940858841, -0.08672257512807846, -0.05353912338614464], [0.1591004729270935, 0.05859429016709328, -0.03423287719488144, -0.028816306963562965, -0.056449804455041885, -0.07900486886501312, -0.14528332650661469, 0.1023411676287651, 0.03943946212530136, 0.07115896791219711, 0.06280358880758286, -0.07516536861658096, -0.07180745899677277, -0.04033617302775383, 0.14210690557956696, 0.03298058360815048, 0.10408707708120346, 0.03225276246666908, 0.1375672072172165, -0.13648390769958496, -0.0012331248726695776, 0.23647500574588776, -0.13682547211647034, -0.12826421856880188, -0.08316866308450699, 0.056538887321949005, -0.0221893060952425, 0.10614875704050064, -0.017892710864543915, -0.06252516061067581, -0.07629145681858063, -0.0714900866150856, 0.1327844113111496, -0.12914949655532837, -0.016596397385001183, 0.1599387377500534, -0.15238286554813385, -0.05418436974287033, 0.0189252607524395, 0.055926624685525894, -0.002499976893886924, 0.07041659206151962, -0.08981047570705414, 0.08898855000734329, 0.18830953538417816, 0.057131990790367126, -0.00450127711519599, -0.0305460374802351, 0.11425592750310898, -0.019387586042284966], [-0.07109705358743668, -0.051768265664577484, -0.059031106531620026, -0.07683748751878738, -0.0390060693025589, 0.190291628241539, 0.009330643340945244, 0.09518679976463318, 0.07359927147626877, -0.08383860439062119, 0.014997967518866062, 0.06992150098085403, -0.08647831529378891, 0.06882037967443466, 0.02493588626384735, 0.06809800118207932, -0.014996436424553394, 0.02669731341302395, 0.0622735396027565, -0.041199132800102234, 0.18088462948799133, 0.14114609360694885, 0.10496579855680466, 0.054907768964767456, -0.006704763509333134, 0.1745506376028061, 0.12392953783273697, 0.06702329218387604, -0.07786975055932999, -0.023461557924747467, 0.13208498060703278, 0.039374735206365585, 0.03989410027861595, 0.10207100212574005, 0.02090156450867653, -0.14804068207740784, -0.1272638589143753, 0.029440348967909813, 0.03179994598031044, -0.14328624308109283, 0.14300329983234406, 0.14760002493858337, 0.04445771500468254, -0.040065374225378036, 0.13990692794322968, -0.05666668340563774, -0.08657373487949371, -0.09622205048799515, 0.05291189253330231, -0.07890400290489197], [0.016009550541639328, 0.06458534300327301, 0.018403079360723495, -0.04952904209494591, 0.15461492538452148, -0.1161600798368454, 0.07599624246358871, -0.06791385263204575, -0.07084670662879944, -0.07728026807308197, 0.044332873076200485, -0.025336284190416336, 0.022481298074126244, -0.11696942150592804, 0.01249606255441904, -0.10973742604255676, -0.12157658487558365, -0.0462188757956028, 0.14105229079723358, -0.043113868683576584, -0.008672114461660385, 0.04735780134797096, -0.016973482444882393, 0.16748571395874023, 0.05234246701002121, -0.06265643239021301, 0.051614079624414444, -0.1778097003698349, 0.06563614308834076, -0.05739001929759979, -0.368027925491333, 0.12544061243534088, -0.1490238457918167, 0.03976300358772278, -0.13294459879398346, 0.009576582349836826, -0.11976201087236404, 0.05214781314134598, -0.11690229177474976, -0.0768570750951767, 0.13984733819961548, 0.07699666917324066, 0.17856404185295105, 0.06671062111854553, -0.06727617233991623, 0.026997582986950874, 0.1395338475704193, -0.043606534600257874, -0.07587320357561111, -0.009240332990884781], [0.1145901307463646, 0.0007945939432829618, -0.06070880964398384, -0.16241763532161713, -0.03713870793581009, 0.08155318349599838, -0.1243676096200943, 0.11614737659692764, 0.09962289035320282, 0.05040204897522926, 0.037852197885513306, 0.13480204343795776, -0.01383842434734106, -0.1400032788515091, 0.06614474207162857, 0.17529605329036713, -0.010983804240822792, 0.05774291232228279, -0.2742327153682709, -0.015875115990638733, -0.04190962389111519, 0.11714772135019302, 0.045393235981464386, 0.05506421625614166, -0.02920890599489212, 0.01924264244735241, -0.07772617042064667, -0.06793885678052902, -0.031114766374230385, 0.09168041497468948, 0.014188315719366074, -0.027722129598259926, 0.0668027326464653, 0.15546421706676483, -0.04627303406596184, -0.1649007648229599, -0.027334818616509438, -0.03311187028884888, -0.014457154087722301, -0.01645631156861782, -0.027880048379302025, -0.09604968130588531, -0.03806639835238457, -0.03002799116075039, 0.0926583930850029, 0.08699450641870499, 0.15182825922966003, 0.004145541228353977, -0.04586143419146538, -0.05727323517203331]], "features.1.bias": [0.13072450459003448, -0.05872263386845589, -0.003116256557404995, -0.05332856997847557, -0.02197994478046894, 0.16963711380958557, 0.02796587161719799, 0.06630231440067291, -0.18878570199012756, 0.03300919383764267, -0.011980202980339527, 0.06923229992389679, -0.0017088728491216898, 0.0004393971466924995, -0.0178055539727211, 0.05806601047515869, -0.11390803754329681, -0.10279783606529236, -0.043159786611795425, 0.14894892275333405, 0.026776093989610672, -0.06262783706188202, -0.09598351269960403, -0.13078051805496216, 0.10922427475452423, -0.000753733329474926, 0.058399587869644165, -0.07893901318311691, -0.052058231085538864, 0.13326938450336456, 0.08544477075338364, 0.0032510929740965366, 0.139949232339859, 0.10983017086982727, 0.21004265546798706, -0.09377975761890411, 0.04695100337266922, -0.02367398701608181, -0.03262962028384209, -0.046161118894815445, 0.08794699609279633, 0.03047802485525608, -0.03138163685798645, 0.05898323282599449, 0.0893554762005806, -0.09424808621406555, -0.08576325327157974, -0.05479101836681366, 0.11369138956069946, 0.004575758241117001], "features.2.weight": [[-0.10764561593532562, -0.17189426720142365, 0.10206848382949829, 0.13821297883987427, 0.12081346660852432, 0.1574336141347885, -0.12118729203939438, 0.11101778596639633, -0.10709741711616516, -0.08396050333976746, 0.046840306371450424, 0.04018053039908409, -0.27376046776771545, -0.06864317506551743, 0.042435240000486374, -0.025785619392991066, -0.02777760475873947, -0.1717129796743393, 0.04150845855474472, 0.016736524179577827, 0.10087522864341736, 0.061253782361745834, 0.12469342350959778, 0.15622809529304504, 0.0591849721968174, 0.18779633939266205, -0.08303578197956085, 0.10779562592506409, -0.028028899803757668, -0.04594254493713379, -0.07264749705791473, 0.002220139605924487, 0.06891275942325592, -0.007333013694733381, -0.12858425080776215, -0.06816510856151581, 0.13364411890506744, 0.11263777315616608, 0.01927732676267624, 0.05413077026605606, 0.0013718069531023502, -0.06918342411518097, -0.004122082144021988, -0.0015676220646128058, -0.05263109877705574, 0.09261748939752579, -0.04263061657547951, -0.09432855248451233, 0.001754316734150052, -0.0830484926700592], [-0.08909600973129272, -0.03573048859834671, -0.125924214720726, 0.1358904242515564, -0.10800974816083908, 0.13165399432182312, 0.10633856058120728, 0.10123312473297119, -0.10628501325845718, -0.1279532015323639, -0.08537626266479492, 0.08848423510789871, -0.11593364179134369, -0.09292511641979218, 0.08332186937332153, -0.01346514094620943, -0.07774723321199417, -0.02059040404856205, 0.09823685139417648, -0.11810147762298584, -0.17495906352996826, 0.10070723295211792, 0.1540968269109726, 0.19094723463058472, 0.07516545057296753, -0.11365735530853271, -0.038301076740026474, -0.08387145400047302, 0.11759904772043228, 0.046371642500162125, -0.02770119719207287, -0.11710970103740692, 0.1507565677165985, -0.06994976103305817, -0.02503223344683647, -0.09336161613464355, -0.007826045155525208, 0.12982787191867828, -0.03429435193538666, 0.0689237117767334, 0.09434036910533905, 0.13574476540088654, -0.11596361547708511, 1.2179100849607494e-05, 0.033941444009542465, -0.015620644204318523, 0.097010038793087, -0.07704747468233109, 0.09867654740810394, -0.09493996948003769], [-0.07380789518356323, 0.07905136793851852, -0.10194050520658493, 0.053292978554964066, -0.02059618942439556, 0.13078045845031738, -0.01437796838581562, 0.09103719890117645, -0.04584210366010666, -0.048042215406894684, -0.11273983865976334, 0.014725115150213242, 0.1272398680448532, 0.027032291516661644, -0.2085208147764206, 0.1989951729774475, -0.13109692931175232, 0.007522295694798231, -0.02531236782670021, -0.09842218458652496, 0.013274846598505974, -0.0878729596734047, -0.06930546462535858, -0.18670609593391418, -0.0671035572886467, 0.06365153938531876, 0.0208614282310009, 0.03091365285217762, 0.045381780713796616, -0.08077311515808105, -0.0219692662358284, 0.004630901385098696, 0.0499877855181694, 0.024750910699367523, -0.06595771759748459, 0.09300051629543304, -0.09078452736139297, 0.14759907126426697, 0.2530405819416046, 0.03290339559316635, -0.11521787196397781, 0.04519032686948776, -0.12616977095603943, 0.11510711908340454, 0.13332433998584747, 0.031304486095905304, 0.11900283396244049, -0.031146757304668427, -0.00794034730643034, -0.30040839314460754], [-0.05299049988389015, -0.03427863121032715, 0.011876923032104969, 0.03193693980574608, 0.09213924407958984, 0.075909823179245, 0.0018288666615262628, -0.013908696360886097, -0.09804502874612808, -0.07909812033176422, 0.1256560981273651, -0.02705344930291176, -0.3431563675403595, -0.039100535213947296, 0.16499078273773193, 0.0834459438920021, -0.05876033380627632, 0.00028938252944499254, 0.12793029844760895, -0.16539263725280762, -0.16276724636554718, -0.192606583237648, -0.043026115745306015, 0.047254569828510284, 0.014125979505479336, -0.06293637305498123, 0.15515263378620148, 0.09220792353153229, -0.04800526797771454, -0.12796823680400848, 0.07879386097192764, 0.06607264280319214, 0.15215925872325897, -0.12802934646606445, -0.0877256914973259, -0.10482484847307205, -0.1355920135974884, -0.015424752607941628, -0.0015123279299587011, 0.09659481048583984, -0.11631221324205399, -0.287792831659317, -0.09048520028591156, -0.08623044937849045, 0.12575367093086243, 0.08709593117237091, 0.04477856680750847, -0.09494302421808243, 0.011740868911147118, 0.026673313230276108], [-0.0329572893679142, -0.026645494624972343, -0.08814553171396255, 0.0999491810798645, -0.08537255227565765, 0.03203108534216881, 0.06895487010478973, -0.03624406456947327, -0.21016035974025726, -0.08515004813671112, -0.07050397992134094, -0.045549824833869934, -0.016717106103897095, 0.0077298893593251705, -0.04851773381233215, 0.05219237133860588, -0.10803855210542679, 0.06834259629249573, 0.08643417060375214, -0.07390407472848892, -0.0664646327495575, 0.08007124066352844, 0.12485692650079727, -0.06404539942741394, 0.0679701641201973, -0.07767979055643082, -0.1059752106666565, 0.12019380182027817, -0.007254317402839661, -0.33074355125427246, 0.15448734164237976, -0.011198987253010273, 0.15456338226795197, 0.0529157780110836, 0.016268916428089142, 0.13328121602535248, -0.009945740923285484, -0.06297929584980011, 0.04955567046999931, -0.04181623458862305, 0.0994061678647995, 0.22005382180213928, -0.09450846910476685, -0.09701430052518845, 0.06818864494562149, -0.0997326597571373, 0.048661746084690094, 0.004249387886375189, -0.076425701379776, -0.10657578706741333], [-0.08751917630434036, -0.04046853631734848, -0.13311494886875153, -0.1128818616271019, 0.13412943482398987, -0.05220821127295494, 0.12182390689849854, 0.012813572771847248, -0.016389718279242516, -0.08603601157665253, 0.09009965509176254, 0.0853172168135643, 0.028785299509763718, 0.040378302335739136, 0.18077223002910614, 0.1100069209933281, -0.049638401716947556, 0.0428936593234539, -0.057870395481586456, -0.051958177238702774, -0.030810754746198654, 0.11179804056882858, -0.0035733962431550026, -0.033452633768320084, -0.15811489522457123, 0.10604561865329742, 0.1245417594909668, 0.06266839802265167, 0.10856729745864868, 0.1817082315683365, 0.09363957494497299, -0.13654014468193054, -0.008568924851715565, -0.07177036255598068, -0.021211307495832443, 0.09347861260175705, -0.16337954998016357, 0.042277656495571136, -0.05850065127015114, 0.05831927806138992, -0.04598231613636017, -0.07208496332168579, 0.15910692512989044, 0.11323340237140656, 0.04905468970537186, 0.014111654832959175, 0.1412084549665451, 0.06163014844059944, 0.1213340163230896, 0.15168127417564392], [-0.026769917458295822, 0.08491490036249161, 0.22534723579883575, -0.11303133517503738, 0.1433401256799698, 0.15086805820465088, 0.11210539937019348, 0.11087816208600998, 0.19346052408218384, 0.026447495445609093, -0.028941500931978226, -0.020285921171307564, 0.05398240685462952, -0.1260014921426773, -0.18893632292747498, 0.06502647697925568, -0.10521289706230164, 0.03268393501639366, 0.023138977587223053, -0.014388993382453918, 0.11324623972177505, -0.04812377318739891, 0.13281039893627167, -0.010688823647797108, 0.011599025689065456, -0.05483092740178108, 0.015624558553099632, 0.13119451701641083, 0.14413389563560486, 0.2392188012599945, 0.08806568384170532, 0.01478469930589199, -0.0037939634639769793, -0.06227083131670952, -0.09945559501647949, -0.053276777267456055, 0.007897875271737576, -0.0010756138944998384, 0.1253422349691391, -0.029691744595766068, 0.003731495002284646, -0.17200349271297455, 0.035394709557294846, 0.13581344485282898, 0.08979874849319458, 0.03631916642189026, -0.034371621906757355, 0.13989005982875824, 0.04600938409566879, -0.10298777371644974], [-0.07699604332447052, -0.05829817056655884, -0.04990918189287186, 0.04415129870176315, 0.062353841960430145, -0.0438295379281044, -0.01667044125497341, -0.028132155537605286, 0.09410230815410614, 0.06337694823741913, 0.08792916685342789, -0.15751487016677856, -0.0378393828868866, 0.0007332486566156149, 0.01593385636806488, -0.027290966361761093, 0.08389434963464737, -0.06560350954532623, 0.06878775358200073, -0.1833774447441101, -0.04093536362051964, -0.14701442420482635, 0.08516290783882141, 0.06820303946733475, -0.002435886301100254, 0.014405244961380959, -0.023627400398254395, -0.007951774634420872, -0.052822913974523544, 0.1536155343055725, 0.0024204934015870094, -0.14619626104831696, 0.03619171306490898, 0.02437286078929901, 0.09946849197149277, -0.12723255157470703, -0.00521200243383646, -0.11685194820165634, 0.057660847902297974, -0.1391352415084839, -0.20455752313137054, 0.18267223238945007, 0.062377240508794785, 0.18862582743167877, 0.12393427640199661, 0.08297839760780334, 0.07647164911031723, 0.09018678218126297, 0.08865910768508911, 0.024877376854419708], [0.1295488029718399, -0.01761655882000923, -0.19318442046642303, 0.12929850816726685, 0.05045775696635246, -0.15774568915367126, -0.054380711168050766, 0.14710557460784912, -0.16734544932842255, -0.09027310460805893, -0.015241550281643867, 0.13174837827682495, 0.11252784729003906, -0.10015789419412613, 0.017633330076932907, 0.09444054216146469, 0.1650920808315277, 0.03039540722966194, -0.09580054879188538, -0.06764131039381027, 0.18975210189819336, 0.014273547567427158, 0.17216630280017853, 0.033681757748126984, -0.11840160191059113, 0.07233669608831406, 0.002501285169273615, 0.07458072155714035, 0.039984334260225296, 0.1336861252784729, -0.009794761426746845, -0.06375845521688461, 0.09146972000598907, 0.06934141367673874, 0.10823479294776917, -0.029146980494260788, 0.09935396909713745, 0.10458026826381683, -0.08639279007911682, 0.0009373760549351573, 0.01432336401194334, -0.04979289323091507, -0.06721897423267365, 0.13095684349536896, -0.09222282469272614, -0.04010297730565071, -0.07355394214391708, -0.024566806852817535, -0.01269450131803751, -0.024828720837831497], [0.11781816929578781, 0.11302352696657181, 0.08029720932245255, 0.006477171555161476, 0.04419920593500137, 0.14233633875846863, 0.03284833952784538, 0.09964427351951599, 0.040427349507808685, 0.07868470996618271, -0.10167426615953445, 0.012842739000916481, -0.011168441735208035, 0.06987294554710388, -0.05732673779129982, -0.04941406846046448, -0.13033734261989594, -0.13595160841941833, 0.11180295050144196, 0.06544487923383713, -0.029561664909124374, -0.12383924424648285, -0.05392603203654289, 0.09809957444667816, 0.12540343403816223, -0.14952656626701355, -0.10622865706682205, -0.01900533400475979, -0.056986767798662186, -0.051164645701646805, -0.07345488667488098, -0.11831232160329819, -0.1257418692111969, 0.09074453264474869, 0.09311267733573914, -0.10390617698431015, 0.08277946710586548, 0.0400824248790741, -0.011891617439687252, 0.11577515304088593, 0.021181587129831314, 0.07799425721168518, 0.12086395174264908, -0.11241136491298676, -0.12407209724187851, 0.09315604716539383, -0.06115281954407692, 0.03821740671992302, -0.0779147520661354, 0.04580887034535408], [0.028567086905241013, 0.040926530957221985, -0.07975603640079498, -0.07579593360424042, 0.13243795931339264, -0.012598819099366665, -0.02326103113591671, -0.04840730503201485, 0.029974909499287605, 0.057058438658714294, -0.4064381718635559, -0.11410917341709137, -0.09203922748565674, 0.016186432912945747, 0.08270838856697083, 0.03334944695234299, 0.048596955835819244, 0.11022571474313736, -0.09147629886865616, 0.04935987666249275, -0.0463559664785862, -0.08793194591999054, -0.12872345745563507, 0.051811277866363525, 0.02932123653590679, -0.03781989589333534, -0.28955844044685364, 0.06796067953109741, 0.051431987434625626, -0.04949655011296272, -0.0020802768412977457, -0.03366047143936157, 0.05151958763599396, 0.13282281160354614, -0.07951612025499344, 0.09557554125785828, -0.03461897745728493, -0.02577928639948368, 0.08726628869771957, -0.05368461459875107, -0.14085975289344788, 0.025190040469169617, 0.1006137877702713, -0.0751105472445488, -0.03201598674058914, -0.19851641356945038, 0.07737144082784653, -0.11194224655628204, 0.02030182257294655, 0.16845738887786865], [0.07955556362867355, 0.006118733901530504, -0.12928079068660736, 0.009472054429352283, -0.14669811725616455, 0.10163547098636627, -0.21011626720428467, -0.049464624375104904, 0.0516667366027832, 0.09716207534074783, -0.03287982940673828, -0.0023199599236249924, 0.037197012454271317, -0.0386013388633728, -0.07531473785638809, 0.0744672492146492, 0.07764653861522675, 0.0715436190366745, -0.6143987774848938, 0.025899095460772514, -0.09372472018003464, -0.18868733942508698, 0.1256902813911438, 0.07454755157232285, -0.10692507028579712, -0.12553229928016663, 0.05639638379216194, 0.08569137006998062, -0.11685555428266525, 0.0405939519405365, 0.10128423571586609, -0.17035725712776184, -0.009374774992465973, -0.1554236263036728, -0.018627358600497246, -0.1236085593700409, -0.2752831280231476, -0.008216151036322117, 0.028769465163350105, 0.04804466664791107, 0.054064203053712845, 0.010167965665459633, 0.10274575650691986, 0.08741450309753418, -0.11419355869293213, 0.08052905648946762, 0.10875702649354935, -0.13010470569133759, -0.091976597905159, 0.048043906688690186], [0.031543415039777756, 0.09793519228696823, 0.08926133066415787, -0.09463594108819962, -0.04682783782482147, 0.05746312439441681, 0.05899899825453758, 0.04489356279373169, 0.09693509340286255, 0.1271715760231018, -0.02838124893605709, 0.1882290095090866, 0.39031630754470825, 0.16504228115081787, -0.09055380523204803, -0.04780978709459305, -0.3029026687145233, -0.10292324423789978, 0.16225910186767578, 0.024939708411693573, 0.0509699247777462, 0.006040709558874369, -0.15114058554172516, 0.10962989181280136, 0.08111986517906189, -0.041009221225976944, -0.17764799296855927, -0.01691407524049282, 0.0635935515165329, 0.05184881016612053, -0.10262029618024826, 0.10397526621818542, 0.08475420624017715, -0.04609508812427521, -0.11261554807424545, -0.1369253396987915, -0.18165388703346252, 0.07332395017147064, -0.05312361195683479, -0.07324095070362091, -0.09898155182600021, 0.1304681897163391, 0.11776275187730789, -0.3098391592502594, -0.05128150433301926, 0.16906267404556274, -0.0272340290248394, 0.06067497283220291, 0.011339412070810795, -0.3481425940990448], [-0.12112002819776535, -0.05930173769593239, 0.058621328324079514, -0.08537226915359497, -0.08538448810577393, 0.0543513260781765, 0.12090425938367844, 0.03147083893418312, 0.1917359083890915, 0.14529716968536377, -0.09050587564706802, 0.10833866149187088, 0.042863134294748306, 0.1698162704706192, -0.059459175914525986, -0.11801901459693909, -0.13144168257713318, -0.03041393682360649, 0.009710428304970264, 0.11398166418075562, -0.055664435029029846, 0.018649252131581306, -0.08014135807752609, 0.0837310329079628, -0.08075428754091263, -0.059948235750198364, 0.031570009887218475, 0.07593956589698792, -0.10677596926689148, 0.021352794021368027, 0.14307813346385956, 0.15074297785758972, -0.06516619771718979, -0.05512664467096329, 0.07094007730484009, 0.07602475583553314, 0.15072138607501984, -0.15093357861042023, -0.04284808784723282, -0.07741500437259674, -0.09105134010314941, -0.1121060773730278, -0.018875326961278915, 0.13658426702022552, 0.10951031744480133, 0.12781281769275665, -0.12152369320392609, -0.11369223892688751, -0.09093845635652542, 0.031847644597291946], [0.11907228827476501, 0.08187739551067352, -0.0055354018695652485, -0.02073994278907776, 0.11439498513936996, -0.06214683875441551, -0.06657186150550842, 0.006410208530724049, 0.0024501695297658443, 0.03391369432210922, 0.18823584914207458, 0.049548741430044174, -0.25009721517562866, 0.057090871036052704, 0.18151557445526123, 0.14655108749866486, 0.1552661508321762, 0.12637439370155334, 0.07520900666713715, -0.10831895470619202, 0.026779158040881157, -0.011089276522397995, -0.08508870750665665, 0.18312501907348633, 0.004214583896100521, 0.12208957970142365, 0.0692012682557106, -0.060116712003946304, 0.16672326624393463, 0.1986985057592392, -0.06792040914297104, 0.022073248401284218, 0.08280974626541138, -0.026400534436106682, -0.03146309033036232, 0.014407324604690075, 0.11696252226829529, 0.12330074608325958, 0.12824849784374237, 0.029433442279696465, -0.007417876273393631, -0.15827882289886475, -0.07122011482715607, 0.05517399683594704, 0.08532379567623138, 0.023428667336702347, -0.03517608344554901, -0.07459250837564468, 0.1408451646566391, 0.005961885210126638], [0.07660266011953354, 0.0908384844660759, -0.07940522581338882, -0.01207953691482544, -0.05100468918681145, -0.1539095789194107, 0.00038794681313447654, 0.15202757716178894, -0.1396040916442871, -0.2121013104915619, -0.019724206998944283, -0.07265061140060425, -0.13265840709209442, -0.06651709228754044, 0.1613566279411316, 0.12575381994247437, 0.008852699771523476, 0.018775267526507378, 0.1487216055393219, 